<?xml version="1.0"?>
<opencv_storage>
<stage16>
  <maxWeakCount>86</maxWeakCount>
  <stageThreshold>-8.3886194229125977e-01</stageThreshold>
  <weakClassifiers>
    <_>
      <internalNodes>
        0 -1 21851 -3.2248169183731079e-02</internalNodes>
      <leafValues>
        -1.4329501986503601e-01 -3.7134709954261780e-01</leafValues></_>
    <_>
      <internalNodes>
        0 -1 109194 1.6518510528840125e-04</internalNodes>
      <leafValues>
        9.3631729483604431e-02 -1.4105562865734100e-01</leafValues></_>
    <_>
      <internalNodes>
        0 -1 127285 3.9609083905816078e-03</internalNodes>
      <leafValues>
        1.2894303537905216e-02 -9.4086420536041260e-01</leafValues></_>
    <_>
      <internalNodes>
        0 -1 8146 -5.5361161939799786e-03</internalNodes>
      <leafValues>
        -8.1815129518508911e-01 1.6701716929674149e-02</leafValues></_>
    <_>
      <internalNodes>
        0 -1 138080 1.5382011188194156e-03</internalNodes>
      <leafValues>
        -4.1133053600788116e-02 2.8975045680999756e-01</leafValues></_>
    <_>
      <internalNodes>
        0 -1 121335 1.0041967034339905e-03</internalNodes>
      <leafValues>
        3.3004324883222580e-02 -3.3648905158042908e-01</leafValues></_>
    <_>
      <internalNodes>
        0 -1 121335 9.1724505182355642e-04</internalNodes>
      <leafValues>
        -5.0107724964618683e-03 5.1444309949874878e-01</leafValues></_>
    <_>
      <internalNodes>
        0 -1 121335 9.5723214326426387e-04</internalNodes>
      <leafValues>
        2.3687407374382019e-03 -4.8398509621620178e-01</leafValues></_>
    <_>
      <internalNodes>
        0 -1 121335 1.0558748617768288e-03</internalNodes>
      <leafValues>
        -6.4136384753510356e-04 5.2191722393035889e-01</leafValues></_>
    <_>
      <internalNodes>
        0 -1 121335 1.0159700177609921e-03</internalNodes>
      <leafValues>
        9.1530074132606387e-04 -5.0149881839752197e-01</leafValues></_>
    <_>
      <internalNodes>
        0 -1 120766 3.9660516194999218e-03</internalNodes>
      <leafValues>
        -2.0152254030108452e-02 3.0656033754348755e-01</leafValues></_>
    <_>
      <internalNodes>
        0 -1 135800 -3.4428467042744160e-03</internalNodes>
      <leafValues>
        6.1753946542739868e-01 -3.8821734488010406e-02</leafValues></_>
    <_>
      <internalNodes>
        0 -1 143031 -1.1522289365530014e-02</internalNodes>
      <leafValues>
        8.6423170566558838e-01 -1.6332518309354782e-02</leafValues></_>
    <_>
      <internalNodes>
        0 -1 137427 1.3680981472134590e-02</internalNodes>
      <leafValues>
        3.9836030453443527e-02 -3.2694673538208008e-01</leafValues></_>
    <_>
      <internalNodes>
        0 -1 125115 2.2260729223489761e-02</internalNodes>
      <leafValues>
        -1.6621990129351616e-02 4.4298306107521057e-01</leafValues></_>
    <_>
      <internalNodes>
        0 -1 10987 4.3705284595489502e-02</internalNodes>
      <leafValues>
        -4.0354687720537186e-02 2.9168725013732910e-01</leafValues></_>
    <_>
      <internalNodes>
        0 -1 119301 -9.0994723141193390e-03</internalNodes>
      <leafValues>
        -8.3034831285476685e-01 1.3864189386367798e-02</leafValues></_>
    <_>
      <internalNodes>
        0 -1 69074 6.1099082231521606e-03</internalNodes>
      <leafValues>
        3.9367482066154480e-02 -3.2151386141777039e-01</leafValues></_>
    <_>
      <internalNodes>
        0 -1 150531 6.9936653599143028e-03</internalNodes>
      <leafValues>
        -2.9645906761288643e-02 4.2263188958168030e-01</leafValues></_>
    <_>
      <internalNodes>
        0 -1 138092 -1.9596483558416367e-02</internalNodes>
      <leafValues>
        7.9210770130157471e-01 -1.0434578172862530e-02</leafValues></_>
    <_>
      <internalNodes>
        0 -1 126668 2.9392694123089314e-03</internalNodes>
      <leafValues>
        -6.6051125526428223e-02 1.8173846602439880e-01</leafValues></_>
    <_>
      <internalNodes>
        0 -1 160642 5.2278168732300401e-04</internalNodes>
      <leafValues>
        6.8618670105934143e-02 -1.6345851123332977e-01</leafValues></_>
    <_>
      <internalNodes>
        0 -1 118310 -3.4151729196310043e-03</internalNodes>
      <leafValues>
        1.8065083026885986e-01 -6.5601870417594910e-02</leafValues></_>
    <_>
      <internalNodes>
        0 -1 106882 -8.9991707354784012e-03</internalNodes>
      <leafValues>
        -8.4725534915924072e-01 1.4086929149925709e-02</leafValues></_>
    <_>
      <internalNodes>
        0 -1 71771 -2.6374044828116894e-03</internalNodes>
      <leafValues>
        2.1670897305011749e-01 -6.1912570148706436e-02</leafValues></_>
    <_>
      <internalNodes>
        0 -1 105883 1.6757554840296507e-04</internalNodes>
      <leafValues>
        7.7970229089260101e-02 -1.5550896525382996e-01</leafValues></_>
    <_>
      <internalNodes>
        0 -1 13732 -2.2554732859134674e-02</internalNodes>
      <leafValues>
        -2.7771380543708801e-01 4.3979659676551819e-02</leafValues></_>
    <_>
      <internalNodes>
        0 -1 72104 -2.8466028161346912e-03</internalNodes>
      <leafValues>
        1.6914142668247223e-01 -8.0784231424331665e-02</leafValues></_>
    <_>
      <internalNodes>
        0 -1 129855 -2.0877400413155556e-02</internalNodes>
      <leafValues>
        8.1032276153564453e-01 -1.2826980091631413e-02</leafValues></_>
    <_>
      <internalNodes>
        0 -1 108156 -9.5396004617214203e-03</internalNodes>
      <leafValues>
        -6.5915417671203613e-01 2.2392923012375832e-02</leafValues></_>
    <_>
      <internalNodes>
        0 -1 99431 4.6124979853630066e-03</internalNodes>
      <leafValues>
        -7.4860706925392151e-02 1.7997682094573975e-01</leafValues></_>
    <_>
      <internalNodes>
        0 -1 89254 6.8326052278280258e-03</internalNodes>
      <leafValues>
        1.5214239247143269e-02 -8.1019526720046997e-01</leafValues></_>
    <_>
      <internalNodes>
        0 -1 140567 -5.9451884590089321e-04</internalNodes>
      <leafValues>
        -1.9565054774284363e-01 6.1267428100109100e-02</leafValues></_>
    <_>
      <internalNodes>
        0 -1 11201 -1.1475631967186928e-02</internalNodes>
      <leafValues>
        -6.6059488058090210e-01 1.3533776625990868e-02</leafValues></_>
    <_>
      <internalNodes>
        0 -1 45028 5.3813643753528595e-03</internalNodes>
      <leafValues>
        -4.7724246978759766e-02 2.7245086431503296e-01</leafValues></_>
    <_>
      <internalNodes>
        0 -1 7423 4.6172174625098705e-03</internalNodes>
      <leafValues>
        2.2350292652845383e-02 -6.2317568063735962e-01</leafValues></_>
    <_>
      <internalNodes>
        0 -1 132617 2.3685661144554615e-03</internalNodes>
      <leafValues>
        -8.7276808917522430e-02 1.3840907812118530e-01</leafValues></_>
    <_>
      <internalNodes>
        0 -1 138656 1.4230140950530767e-03</internalNodes>
      <leafValues>
        7.1722157299518585e-02 -1.8458077311515808e-01</leafValues></_>
    <_>
      <internalNodes>
        0 -1 67206 -1.4998155529610813e-04</internalNodes>
      <leafValues>
        -1.7724549770355225e-01 7.0463255047798157e-02</leafValues></_>
    <_>
      <internalNodes>
        0 -1 36660 -6.8796463892795146e-05</internalNodes>
      <leafValues>
        1.3257351517677307e-01 -9.5409512519836426e-02</leafValues></_>
    <_>
      <internalNodes>
        0 -1 156492 -9.3202423304319382e-03</internalNodes>
      <leafValues>
        2.1566994488239288e-01 -5.8223124593496323e-02</leafValues></_>
    <_>
      <internalNodes>
        0 -1 66151 1.9011277472600341e-03</internalNodes>
      <leafValues>
        5.2039921283721924e-02 -2.4806077778339386e-01</leafValues></_>
    <_>
      <internalNodes>
        0 -1 78785 -1.7586984904482961e-04</internalNodes>
      <leafValues>
        1.2246714532375336e-01 -1.1015193909406662e-01</leafValues></_>
    <_>
      <internalNodes>
        0 -1 96830 9.5683662220835686e-03</internalNodes>
      <leafValues>
        -3.9208710193634033e-02 3.3382207155227661e-01</leafValues></_>
    <_>
      <internalNodes>
        0 -1 104822 7.9960897564888000e-03</internalNodes>
      <leafValues>
        4.5235056430101395e-02 -3.2899028062820435e-01</leafValues></_>
    <_>
      <internalNodes>
        0 -1 77396 2.8294408693909645e-03</internalNodes>
      <leafValues>
        6.6410481929779053e-02 -1.9563820958137512e-01</leafValues></_>
    <_>
      <internalNodes>
        0 -1 86332 1.1145784519612789e-03</internalNodes>
      <leafValues>
        -1.0240598022937775e-01 1.3675703108310699e-01</leafValues></_>
    <_>
      <internalNodes>
        0 -1 6364 -9.8150903359055519e-03</internalNodes>
      <leafValues>
        1.5790118277072906e-01 -9.7333595156669617e-02</leafValues></_>
    <_>
      <internalNodes>
        0 -1 30979 -7.7345684170722961e-02</internalNodes>
      <leafValues>
        -2.0411340892314911e-01 6.9964334368705750e-02</leafValues></_>
    <_>
      <internalNodes>
        0 -1 103435 -3.2194654922932386e-03</internalNodes>
      <leafValues>
        9.8341681063175201e-02 -1.3460317254066467e-01</leafValues></_>
    <_>
      <internalNodes>
        0 -1 104947 1.0451899841427803e-02</internalNodes>
      <leafValues>
        6.7771136760711670e-02 -1.8327923119068146e-01</leafValues></_>
    <_>
      <internalNodes>
        0 -1 119056 2.1723683457821608e-03</internalNodes>
      <leafValues>
        -1.0608648508787155e-01 1.2463495880365372e-01</leafValues></_>
    <_>
      <internalNodes>
        0 -1 111168 -2.3285165429115295e-02</internalNodes>
      <leafValues>
        1.5125174820423126e-01 -8.4524720907211304e-02</leafValues></_>
    <_>
      <internalNodes>
        0 -1 98335 -3.8132905960083008e-02</internalNodes>
      <leafValues>
        -2.9877194762229919e-01 4.2975418269634247e-02</leafValues></_>
    <_>
      <internalNodes>
        0 -1 154541 3.7704878486692905e-03</internalNodes>
      <leafValues>
        -3.7161331623792648e-02 3.5818660259246826e-01</leafValues></_>
    <_>
      <internalNodes>
        0 -1 156832 -7.8542269766330719e-03</internalNodes>
      <leafValues>
        -5.2707004547119141e-01 2.5651499629020691e-02</leafValues></_>
    <_>
      <internalNodes>
        0 -1 124190 -3.7987470626831055e-02</internalNodes>
      <leafValues>
        2.2866632044315338e-01 -5.7903502136468887e-02</leafValues></_>
    <_>
      <internalNodes>
        0 -1 124381 -9.8651577718555927e-04</internalNodes>
      <leafValues>
        -2.1029253304004669e-01 6.8372413516044617e-02</leafValues></_>
    <_>
      <internalNodes>
        0 -1 135438 4.4313538819551468e-03</internalNodes>
      <leafValues>
        -2.9268659651279449e-02 4.1889116168022156e-01</leafValues></_>
    <_>
      <internalNodes>
        0 -1 47926 -5.5557196028530598e-03</internalNodes>
      <leafValues>
        -2.5023308396339417e-01 4.5712407678365707e-02</leafValues></_>
    <_>
      <internalNodes>
        0 -1 98405 -2.2587455532629974e-05</internalNodes>
      <leafValues>
        1.3338097929954529e-01 -8.9901730418205261e-02</leafValues></_>
    <_>
      <internalNodes>
        0 -1 88553 1.3268591137602925e-03</internalNodes>
      <leafValues>
        -5.8613318949937820e-02 2.1880844235420227e-01</leafValues></_>
    <_>
      <internalNodes>
        0 -1 89572 2.9261892195791006e-03</internalNodes>
      <leafValues>
        3.3337567001581192e-02 -4.0225061774253845e-01</leafValues></_>
    <_>
      <internalNodes>
        0 -1 156794 1.0140631638932973e-04</internalNodes>
      <leafValues>
        6.6553205251693726e-02 -1.8355274200439453e-01</leafValues></_>
    <_>
      <internalNodes>
        0 -1 153063 -1.9371725618839264e-02</internalNodes>
      <leafValues>
        3.3224359154701233e-01 -4.0182337164878845e-02</leafValues></_>
    <_>
      <internalNodes>
        0 -1 59292 -5.4504896979779005e-04</internalNodes>
      <leafValues>
        -1.2379376590251923e-01 1.0865473747253418e-01</leafValues></_>
    <_>
      <internalNodes>
        0 -1 17497 -2.2973040118813515e-02</internalNodes>
      <leafValues>
        1.2276426702737808e-01 -1.2457882612943649e-01</leafValues></_>
    <_>
      <internalNodes>
        0 -1 151859 2.6116383378393948e-04</internalNodes>
      <leafValues>
        -4.8139542341232300e-02 2.5565430521965027e-01</leafValues></_>
    <_>
      <internalNodes>
        0 -1 29777 1.8140622973442078e-01</internalNodes>
      <leafValues>
        -2.9517134651541710e-02 4.0717706084251404e-01</leafValues></_>
    <_>
      <internalNodes>
        0 -1 49657 -5.2995875477790833e-02</internalNodes>
      <leafValues>
        6.7184442281723022e-01 -2.1008694544434547e-02</leafValues></_>
    <_>
      <internalNodes>
        0 -1 91889 -1.3374285481404513e-04</internalNodes>
      <leafValues>
        -2.2622378170490265e-01 6.0745876282453537e-02</leafValues></_>
    <_>
      <internalNodes>
        0 -1 38930 5.5719800002407283e-05</internalNodes>
      <leafValues>
        -7.1211375296115875e-02 1.8367329239845276e-01</leafValues></_>
    <_>
      <internalNodes>
        0 -1 118197 -6.1555323190987110e-03</internalNodes>
      <leafValues>
        2.4761343002319336e-01 -5.4477363824844360e-02</leafValues></_>
    <_>
      <internalNodes>
        0 -1 142155 -6.4142368501052260e-05</internalNodes>
      <leafValues>
        -1.6927997767925262e-01 7.5602732598781586e-02</leafValues></_>
    <_>
      <internalNodes>
        0 -1 158649 -3.7982605397701263e-02</internalNodes>
      <leafValues>
        -8.3114248514175415e-01 1.5375328250229359e-02</leafValues></_>
    <_>
      <internalNodes>
        0 -1 158255 -1.2301712995395064e-03</internalNodes>
      <leafValues>
        -4.0609705448150635e-01 2.6543611660599709e-02</leafValues></_>
    <_>
      <internalNodes>
        0 -1 13016 -7.6505197212100029e-03</internalNodes>
      <leafValues>
        -8.1003355979919434e-01 1.2885340489447117e-02</leafValues></_>
    <_>
      <internalNodes>
        0 -1 162015 1.8991185352206230e-03</internalNodes>
      <leafValues>
        -4.9602493643760681e-02 2.7184450626373291e-01</leafValues></_>
    <_>
      <internalNodes>
        0 -1 17250 1.4761945931240916e-04</internalNodes>
      <leafValues>
        8.3525605499744415e-02 -1.6029575467109680e-01</leafValues></_>
    <_>
      <internalNodes>
        0 -1 3237 6.5479904413223267e-02</internalNodes>
      <leafValues>
        -2.1163372322916985e-02 6.9480180740356445e-01</leafValues></_>
    <_>
      <internalNodes>
        0 -1 49638 1.0334828868508339e-02</internalNodes>
      <leafValues>
        2.2874936461448669e-02 -6.3552683591842651e-01</leafValues></_>
    <_>
      <internalNodes>
        0 -1 152162 -3.0386529033421539e-05</internalNodes>
      <leafValues>
        1.8319357931613922e-01 -6.9800868630409241e-02</leafValues></_>
    <_>
      <internalNodes>
        0 -1 79641 1.6766602173447609e-02</internalNodes>
      <leafValues>
        1.3219543732702732e-02 -9.5392268896102905e-01</leafValues></_>
    <_>
      <internalNodes>
        0 -1 76278 -7.6530426740646362e-03</internalNodes>
      <leafValues>
        5.1656270027160645e-01 -2.6656601577997208e-02</leafValues></_>
    <_>
      <internalNodes>
        0 -1 116528 2.9864883981645107e-03</internalNodes>
      <leafValues>
        2.3657159879803658e-02 -5.2571755647659302e-01</leafValues></_>
    <_>
      <internalNodes>
        0 -1 42782 5.1217540167272091e-03</internalNodes>
      <leafValues>
        -5.4410610347986221e-02 2.5237804651260376e-01</leafValues></_></weakClassifiers></stage16>
</opencv_storage>
