<?xml version="1.0"?>
<opencv_storage>
<stage2>
  <maxWeakCount>29</maxWeakCount>
  <stageThreshold>-1.1458588838577271e+00</stageThreshold>
  <weakClassifiers>
    <_>
      <internalNodes>
        0 -1 104060 -8.4868725389242172e-03</internalNodes>
      <leafValues>
        6.2831860780715942e-01 -3.4246575832366943e-01</leafValues></_>
    <_>
      <internalNodes>
        0 -1 125757 1.5682412777096033e-03</internalNodes>
      <leafValues>
        -1.8218301236629486e-01 4.6359643340110779e-01</leafValues></_>
    <_>
      <internalNodes>
        0 -1 126066 -6.1341788386926055e-04</internalNodes>
      <leafValues>
        5.2233922481536865e-01 -9.6361652016639709e-02</leafValues></_>
    <_>
      <internalNodes>
        0 -1 126626 -1.0418992023915052e-03</internalNodes>
      <leafValues>
        4.6468397974967957e-01 -1.1914575099945068e-01</leafValues></_>
    <_>
      <internalNodes>
        0 -1 126355 5.0376378931105137e-04</internalNodes>
      <leafValues>
        -1.5809842944145203e-01 2.9879033565521240e-01</leafValues></_>
    <_>
      <internalNodes>
        0 -1 118310 -3.8622627034783363e-03</internalNodes>
      <leafValues>
        4.0814071893692017e-01 -9.5260411500930786e-02</leafValues></_>
    <_>
      <internalNodes>
        0 -1 139666 -3.7765275919809937e-05</internalNodes>
      <leafValues>
        1.8604229390621185e-01 -1.8682615458965302e-01</leafValues></_>
    <_>
      <internalNodes>
        0 -1 119607 4.2917942628264427e-03</internalNodes>
      <leafValues>
        -1.1249618232250214e-01 2.9251575469970703e-01</leafValues></_>
    <_>
      <internalNodes>
        0 -1 119994 5.0214235670864582e-03</internalNodes>
      <leafValues>
        -1.0802431404590607e-01 3.0308759212493896e-01</leafValues></_>
    <_>
      <internalNodes>
        0 -1 44037 3.0868791509419680e-03</internalNodes>
      <leafValues>
        -1.0287297517061234e-01 2.5581327080726624e-01</leafValues></_>
    <_>
      <internalNodes>
        0 -1 112214 -2.2936910390853882e-03</internalNodes>
      <leafValues>
        2.5372290611267090e-01 -1.5334804356098175e-01</leafValues></_>
    <_>
      <internalNodes>
        0 -1 112211 -1.9114618189632893e-03</internalNodes>
      <leafValues>
        3.4357061982154846e-01 -7.7116578817367554e-02</leafValues></_>
    <_>
      <internalNodes>
        0 -1 100585 6.0925194993615150e-03</internalNodes>
      <leafValues>
        -5.6850887835025787e-02 5.5392712354660034e-01</leafValues></_>
    <_>
      <internalNodes>
        0 -1 133148 8.1212478107772768e-05</internalNodes>
      <leafValues>
        -1.5002954006195068e-01 1.9201809167861938e-01</leafValues></_>
    <_>
      <internalNodes>
        0 -1 46897 1.3878418132662773e-02</internalNodes>
      <leafValues>
        -1.1760026961565018e-01 2.1695801615715027e-01</leafValues></_>
    <_>
      <internalNodes>
        0 -1 77684 1.2592267990112305e-01</internalNodes>
      <leafValues>
        6.1807513236999512e-02 -4.2716342210769653e-01</leafValues></_>
    <_>
      <internalNodes>
        0 -1 34082 -4.9115501344203949e-02</internalNodes>
      <leafValues>
        2.1770894527435303e-01 -1.2490026652812958e-01</leafValues></_>
    <_>
      <internalNodes>
        0 -1 104440 3.4299219259992242e-04</internalNodes>
      <leafValues>
        -1.3749429583549500e-01 2.1027657389640808e-01</leafValues></_>
    <_>
      <internalNodes>
        0 -1 111248 8.1043869256973267e-02</internalNodes>
      <leafValues>
        7.4596591293811798e-02 -4.3082675337791443e-01</leafValues></_>
    <_>
      <internalNodes>
        0 -1 101702 -6.1573497951030731e-03</internalNodes>
      <leafValues>
        6.2433367967605591e-01 -4.8837777227163315e-02</leafValues></_>
    <_>
      <internalNodes>
        0 -1 147132 1.4260491356253624e-02</internalNodes>
      <leafValues>
        -5.8077886700630188e-02 4.0782162547111511e-01</leafValues></_>
    <_>
      <internalNodes>
        0 -1 148114 3.3045507734641433e-04</internalNodes>
      <leafValues>
        7.2706416249275208e-02 -3.7353616952896118e-01</leafValues></_>
    <_>
      <internalNodes>
        0 -1 132328 -8.4921550005674362e-03</internalNodes>
      <leafValues>
        8.4896820783615112e-01 -3.5669039934873581e-02</leafValues></_>
    <_>
      <internalNodes>
        0 -1 1912 -4.1919593058992177e-05</internalNodes>
      <leafValues>
        1.8261520564556122e-01 -1.3495805859565735e-01</leafValues></_>
    <_>
      <internalNodes>
        0 -1 77078 6.7662730813026428e-02</internalNodes>
      <leafValues>
        3.9876986294984818e-02 -6.6878443956375122e-01</leafValues></_>
    <_>
      <internalNodes>
        0 -1 111503 -3.4393720328807831e-02</internalNodes>
      <leafValues>
        7.1140128374099731e-01 -4.1754968464374542e-02</leafValues></_>
    <_>
      <internalNodes>
        0 -1 84281 4.6095689758658409e-03</internalNodes>
      <leafValues>
        -1.2501002848148346e-01 2.0180386304855347e-01</leafValues></_>
    <_>
      <internalNodes>
        0 -1 136790 -3.2019603531807661e-04</internalNodes>
      <leafValues>
        -3.0033034086227417e-01 8.5024647414684296e-02</leafValues></_>
    <_>
      <internalNodes>
        0 -1 57475 -1.8075770139694214e-01</internalNodes>
      <leafValues>
        -9.0313160419464111e-01 2.0675331354141235e-02</leafValues></_></weakClassifiers></stage2>
</opencv_storage>
