<?xml version="1.0"?>
<opencv_storage>
<stage1>
  <maxWeakCount>100</maxWeakCount>
  <stageThreshold>-7.2963970899581909e-01</stageThreshold>
  <weakClassifiers>
    <_>
      <internalNodes>
        0 -1 1402 -8.8272653520107269e-03</internalNodes>
      <leafValues>
        -3.2524272799491882e-01 -7.2837370634078979e-01</leafValues></_>
    <_>
      <internalNodes>
        0 -1 94032 -9.3757674098014832e-02</internalNodes>
      <leafValues>
        -6.7389100790023804e-01 1.5708412975072861e-02</leafValues></_>
    <_>
      <internalNodes>
        0 -1 119597 -9.1951771173626184e-04</internalNodes>
      <leafValues>
        3.6858698725700378e-01 -1.6045476496219635e-01</leafValues></_>
    <_>
      <internalNodes>
        0 -1 26778 -3.0879255384206772e-02</internalNodes>
      <leafValues>
        2.8321012854576111e-01 -2.0294375717639923e-01</leafValues></_>
    <_>
      <internalNodes>
        0 -1 80625 9.7481696866452694e-04</internalNodes>
      <leafValues>
        1.2147414684295654e-01 -3.3727839589118958e-01</leafValues></_>
    <_>
      <internalNodes>
        0 -1 112533 3.1124590896070004e-03</internalNodes>
      <leafValues>
        -7.2105012834072113e-02 5.1912206411361694e-01</leafValues></_>
    <_>
      <internalNodes>
        0 -1 118633 9.1198720037937164e-03</internalNodes>
      <leafValues>
        -7.4032440781593323e-02 4.7282418608665466e-01</leafValues></_>
    <_>
      <internalNodes>
        0 -1 13006 -2.5492685381323099e-04</internalNodes>
      <leafValues>
        -2.9130792617797852e-01 1.4634221792221069e-01</leafValues></_>
    <_>
      <internalNodes>
        0 -1 13006 9.3123315309640020e-05</internalNodes>
      <leafValues>
        1.4803874492645264e-01 -2.5136771798133850e-01</leafValues></_>
    <_>
      <internalNodes>
        0 -1 119301 -6.6335126757621765e-04</internalNodes>
      <leafValues>
        2.5108382105827332e-01 -1.2566970288753510e-01</leafValues></_>
    <_>
      <internalNodes>
        0 -1 162245 -1.8348626326769590e-04</internalNodes>
      <leafValues>
        -2.7824142575263977e-01 1.0956536978483200e-01</leafValues></_>
    <_>
      <internalNodes>
        0 -1 119301 1.4185158070176840e-03</internalNodes>
      <leafValues>
        -1.0612501204013824e-01 3.0432832241058350e-01</leafValues></_>
    <_>
      <internalNodes>
        0 -1 160676 1.0189141612499952e-03</internalNodes>
      <leafValues>
        8.6534872651100159e-02 -3.9470642805099487e-01</leafValues></_>
    <_>
      <internalNodes>
        0 -1 111858 1.4944507274776697e-03</internalNodes>
      <leafValues>
        -1.0960175096988678e-01 2.4722135066986084e-01</leafValues></_>
    <_>
      <internalNodes>
        0 -1 131849 -6.6290609538555145e-04</internalNodes>
      <leafValues>
        2.3653808236122131e-01 -1.3343733549118042e-01</leafValues></_>
    <_>
      <internalNodes>
        0 -1 130948 -3.1816801056265831e-03</internalNodes>
      <leafValues>
        2.5552701950073242e-01 -1.1618691682815552e-01</leafValues></_>
    <_>
      <internalNodes>
        0 -1 116531 -5.5593514116480947e-04</internalNodes>
      <leafValues>
        -2.5331512093544006e-01 1.2052360177040100e-01</leafValues></_>
    <_>
      <internalNodes>
        0 -1 55268 4.2559662833809853e-03</internalNodes>
      <leafValues>
        -1.6978007555007935e-01 1.5795096755027771e-01</leafValues></_>
    <_>
      <internalNodes>
        0 -1 93488 -1.7156499624252319e-01</internalNodes>
      <leafValues>
        -8.8684302568435669e-01 3.0541280284523964e-02</leafValues></_>
    <_>
      <internalNodes>
        0 -1 159668 4.8036593943834305e-04</internalNodes>
      <leafValues>
        9.5931172370910645e-02 -2.8632324934005737e-01</leafValues></_>
    <_>
      <internalNodes>
        0 -1 131902 -2.4829921312630177e-03</internalNodes>
      <leafValues>
        2.0192661881446838e-01 -1.4910262823104858e-01</leafValues></_>
    <_>
      <internalNodes>
        0 -1 104165 -3.2687023282051086e-02</internalNodes>
      <leafValues>
        -4.9787297844886780e-01 5.4968141019344330e-02</leafValues></_>
    <_>
      <internalNodes>
        0 -1 162027 -3.9501703577116132e-04</internalNodes>
      <leafValues>
        -2.6067316532135010e-01 9.7727604210376740e-02</leafValues></_>
    <_>
      <internalNodes>
        0 -1 77418 7.3108654469251633e-03</internalNodes>
      <leafValues>
        -5.2767381072044373e-02 5.3959333896636963e-01</leafValues></_>
    <_>
      <internalNodes>
        0 -1 84713 1.9094164017587900e-03</internalNodes>
      <leafValues>
        -3.7879534065723419e-02 5.7980394363403320e-01</leafValues></_>
    <_>
      <internalNodes>
        0 -1 95442 2.2240161895751953e-02</internalNodes>
      <leafValues>
        6.3862659037113190e-02 -4.2322075366973877e-01</leafValues></_>
    <_>
      <internalNodes>
        0 -1 45563 -3.1938654137775302e-04</internalNodes>
      <leafValues>
        -1.8938265740871429e-01 1.3036827743053436e-01</leafValues></_>
    <_>
      <internalNodes>
        0 -1 67585 2.9068379662930965e-03</internalNodes>
      <leafValues>
        -1.3648042082786560e-01 1.8073457479476929e-01</leafValues></_>
    <_>
      <internalNodes>
        0 -1 1115 -8.9584820671007037e-05</internalNodes>
      <leafValues>
        -1.8659380078315735e-01 1.2575131654739380e-01</leafValues></_>
    <_>
      <internalNodes>
        0 -1 1115 4.7082834498723969e-05</internalNodes>
      <leafValues>
        1.5637809038162231e-01 -1.9692721962928772e-01</leafValues></_>
    <_>
      <internalNodes>
        0 -1 86865 2.0553234498947859e-03</internalNodes>
      <leafValues>
        -1.1429255455732346e-01 2.2114966809749603e-01</leafValues></_>
    <_>
      <internalNodes>
        0 -1 162269 8.4574596257880330e-04</internalNodes>
      <leafValues>
        5.8762226253747940e-02 -4.0378645062446594e-01</leafValues></_>
    <_>
      <internalNodes>
        0 -1 91284 1.1919027892872691e-03</internalNodes>
      <leafValues>
        -1.4375740289688110e-01 1.6259379684925079e-01</leafValues></_>
    <_>
      <internalNodes>
        0 -1 119640 5.9576267376542091e-03</internalNodes>
      <leafValues>
        -5.9934712946414948e-02 3.7741336226463318e-01</leafValues></_>
    <_>
      <internalNodes>
        0 -1 132070 -3.0442712159128860e-05</internalNodes>
      <leafValues>
        1.3068190217018127e-01 -1.8080504238605499e-01</leafValues></_>
    <_>
      <internalNodes>
        0 -1 132074 -3.4372665686532855e-04</internalNodes>
      <leafValues>
        2.3018795251846313e-01 -9.5873668789863586e-02</leafValues></_>
    <_>
      <internalNodes>
        0 -1 64918 1.7586175817996264e-03</internalNodes>
      <leafValues>
        -3.7071622908115387e-02 5.6511014699935913e-01</leafValues></_>
    <_>
      <internalNodes>
        0 -1 120362 -5.9604959096759558e-04</internalNodes>
      <leafValues>
        -3.5288482904434204e-01 6.7520715296268463e-02</leafValues></_>
    <_>
      <internalNodes>
        0 -1 113359 -5.1150913350284100e-04</internalNodes>
      <leafValues>
        -2.5692474842071533e-01 7.7412381768226624e-02</leafValues></_>
    <_>
      <internalNodes>
        0 -1 137621 1.2683134991675615e-03</internalNodes>
      <leafValues>
        -7.6602064073085785e-02 2.8327032923698425e-01</leafValues></_>
    <_>
      <internalNodes>
        0 -1 18860 -1.8869826453737915e-04</internalNodes>
      <leafValues>
        -2.1590723097324371e-01 1.0030395537614822e-01</leafValues></_>
    <_>
      <internalNodes>
        0 -1 137192 -3.8359651807695627e-03</internalNodes>
      <leafValues>
        2.1788474917411804e-01 -1.0436876863241196e-01</leafValues></_>
    <_>
      <internalNodes>
        0 -1 64270 4.2288145050406456e-03</internalNodes>
      <leafValues>
        -3.8560602813959122e-02 5.3300106525421143e-01</leafValues></_>
    <_>
      <internalNodes>
        0 -1 160073 6.3375325407832861e-04</internalNodes>
      <leafValues>
        5.9489905834197998e-02 -3.4310790896415710e-01</leafValues></_>
    <_>
      <internalNodes>
        0 -1 128430 -2.6839217543601990e-01</internalNodes>
      <leafValues>
        -7.0118755102157593e-01 2.4789942428469658e-02</leafValues></_>
    <_>
      <internalNodes>
        0 -1 112588 -1.3267801143229008e-02</internalNodes>
      <leafValues>
        2.1124178171157837e-01 -8.7041214108467102e-02</leafValues></_>
    <_>
      <internalNodes>
        0 -1 162324 5.1826721755787730e-04</internalNodes>
      <leafValues>
        8.0473378300666809e-02 -2.3507358133792877e-01</leafValues></_>
    <_>
      <internalNodes>
        0 -1 112579 -1.4654166297987103e-03</internalNodes>
      <leafValues>
        1.5411193668842316e-01 -1.1917155981063843e-01</leafValues></_>
    <_>
      <internalNodes>
        0 -1 79892 -5.3765806369483471e-03</internalNodes>
      <leafValues>
        9.0555781126022339e-01 -1.9716463983058929e-02</leafValues></_>
    <_>
      <internalNodes>
        0 -1 101368 7.9879581928253174e-02</internalNodes>
      <leafValues>
        4.1095267981290817e-02 -4.9604561924934387e-01</leafValues></_>
    <_>
      <internalNodes>
        0 -1 86820 8.6900120368227363e-04</internalNodes>
      <leafValues>
        -1.3574331998825073e-01 1.5281622111797333e-01</leafValues></_>
    <_>
      <internalNodes>
        0 -1 125469 -1.8614061409607530e-03</internalNodes>
      <leafValues>
        2.0962645113468170e-01 -1.0243557393550873e-01</leafValues></_>
    <_>
      <internalNodes>
        0 -1 60358 -2.5924216606654227e-04</internalNodes>
      <leafValues>
        -2.4191835522651672e-01 8.6145810782909393e-02</leafValues></_>
    <_>
      <internalNodes>
        0 -1 101884 3.5521887242794037e-02</internalNodes>
      <leafValues>
        3.2852072268724442e-02 -5.0732958316802979e-01</leafValues></_>
    <_>
      <internalNodes>
        0 -1 76329 2.9414081946015358e-03</internalNodes>
      <leafValues>
        -5.5033221840858459e-02 4.0330094099044800e-01</leafValues></_>
    <_>
      <internalNodes>
        0 -1 2134 -5.4930867918301374e-05</internalNodes>
      <leafValues>
        -1.6678573191165924e-01 1.1432898789644241e-01</leafValues></_>
    <_>
      <internalNodes>
        0 -1 94823 3.9852727204561234e-03</internalNodes>
      <leafValues>
        -1.1244845390319824e-01 1.6794897615909576e-01</leafValues></_>
    <_>
      <internalNodes>
        0 -1 58159 8.3533562719821930e-03</internalNodes>
      <leafValues>
        -2.0246723666787148e-02 8.9162868261337280e-01</leafValues></_>
    <_>
      <internalNodes>
        0 -1 92845 2.5572227314114571e-03</internalNodes>
      <leafValues>
        6.6927343606948853e-02 -3.4331747889518738e-01</leafValues></_>
    <_>
      <internalNodes>
        0 -1 79333 4.0212832391262054e-03</internalNodes>
      <leafValues>
        -2.5159422308206558e-02 8.7931567430496216e-01</leafValues></_>
    <_>
      <internalNodes>
        0 -1 42340 4.3294774368405342e-03</internalNodes>
      <leafValues>
        -7.7742762863636017e-02 2.2016972303390503e-01</leafValues></_>
    <_>
      <internalNodes>
        0 -1 58164 1.4541602693498135e-02</internalNodes>
      <leafValues>
        -2.1570192649960518e-02 7.6031959056854248e-01</leafValues></_>
    <_>
      <internalNodes>
        0 -1 13372 3.4088621032424271e-04</internalNodes>
      <leafValues>
        6.4443670213222504e-02 -3.0233746767044067e-01</leafValues></_>
    <_>
      <internalNodes>
        0 -1 107142 -8.3834230899810791e-02</internalNodes>
      <leafValues>
        -4.6591463685035706e-01 3.5917155444622040e-02</leafValues></_>
    <_>
      <internalNodes>
        0 -1 45729 8.1982407718896866e-03</internalNodes>
      <leafValues>
        -4.3764222413301468e-02 4.1449385881423950e-01</leafValues></_>
    <_>
      <internalNodes>
        0 -1 45775 -2.9866697266697884e-02</internalNodes>
      <leafValues>
        8.0296820402145386e-01 -1.8019499257206917e-02</leafValues></_>
    <_>
      <internalNodes>
        0 -1 92791 -2.0239525474607944e-03</internalNodes>
      <leafValues>
        1.1920326203107834e-01 -1.5094281733036041e-01</leafValues></_>
    <_>
      <internalNodes>
        0 -1 162098 -1.7836096230894327e-04</internalNodes>
      <leafValues>
        -1.9873851537704468e-01 8.8701300323009491e-02</leafValues></_>
    <_>
      <internalNodes>
        0 -1 6832 -4.7578096389770508e-02</internalNodes>
      <leafValues>
        6.5833944082260132e-01 -2.7044059708714485e-02</leafValues></_>
    <_>
      <internalNodes>
        0 -1 128147 2.6838973164558411e-02</internalNodes>
      <leafValues>
        -3.4152898937463760e-02 4.5364570617675781e-01</leafValues></_>
    <_>
      <internalNodes>
        0 -1 3207 2.5515655579511076e-05</internalNodes>
      <leafValues>
        1.2474805116653442e-01 -1.4253626763820648e-01</leafValues></_>
    <_>
      <internalNodes>
        0 -1 8991 -7.3605142533779144e-03</internalNodes>
      <leafValues>
        1.1375491321086884e-01 -1.4588661491870880e-01</leafValues></_>
    <_>
      <internalNodes>
        0 -1 89760 6.8677088711410761e-04</internalNodes>
      <leafValues>
        5.0249692052602768e-02 -4.3082600831985474e-01</leafValues></_>
    <_>
      <internalNodes>
        0 -1 145771 -5.9523950330913067e-03</internalNodes>
      <leafValues>
        1.7074224352836609e-01 -1.0214293003082275e-01</leafValues></_>
    <_>
      <internalNodes>
        0 -1 98770 8.0836892127990723e-02</internalNodes>
      <leafValues>
        2.4942506104707718e-02 -6.9795751571655273e-01</leafValues></_>
    <_>
      <internalNodes>
        0 -1 68143 -1.2849953491240740e-03</internalNodes>
      <leafValues>
        1.8886287510395050e-01 -9.0606182813644409e-02</leafValues></_>
    <_>
      <internalNodes>
        0 -1 12849 -3.9191851392388344e-03</internalNodes>
      <leafValues>
        -2.3152750730514526e-01 7.5128741562366486e-02</leafValues></_>
    <_>
      <internalNodes>
        0 -1 44721 8.3853099495172501e-03</internalNodes>
      <leafValues>
        -1.1046338826417923e-01 1.4946506917476654e-01</leafValues></_>
    <_>
      <internalNodes>
        0 -1 65102 2.7792988112196326e-04</internalNodes>
      <leafValues>
        -1.3686020672321320e-01 1.4167854189872742e-01</leafValues></_>
    <_>
      <internalNodes>
        0 -1 90552 1.1793337762355804e-04</internalNodes>
      <leafValues>
        8.9193396270275116e-02 -1.9801574945449829e-01</leafValues></_>
    <_>
      <internalNodes>
        0 -1 92554 -2.6955702342092991e-03</internalNodes>
      <leafValues>
        1.7239198088645935e-01 -9.4807393848896027e-02</leafValues></_>
    <_>
      <internalNodes>
        0 -1 125441 -5.6404918432235718e-03</internalNodes>
      <leafValues>
        -4.2551109194755554e-01 3.9455667138099670e-02</leafValues></_>
    <_>
      <internalNodes>
        0 -1 70854 1.1490627657622099e-03</internalNodes>
      <leafValues>
        -1.3058051466941833e-01 1.2834392488002777e-01</leafValues></_>
    <_>
      <internalNodes>
        0 -1 9437 -7.3630653787404299e-04</internalNodes>
      <leafValues>
        -3.4141060709953308e-01 4.9164060503244400e-02</leafValues></_>
    <_>
      <internalNodes>
        0 -1 118694 2.1760355681180954e-02</internalNodes>
      <leafValues>
        2.2326843813061714e-02 -6.6314601898193359e-01</leafValues></_>
    <_>
      <internalNodes>
        0 -1 119598 -3.2746000215411186e-04</internalNodes>
      <leafValues>
        1.6579560935497284e-01 -1.0582827776670456e-01</leafValues></_>
    <_>
      <internalNodes>
        0 -1 119598 8.4233179222792387e-04</internalNodes>
      <leafValues>
        -8.1160806119441986e-02 2.8215292096138000e-01</leafValues></_>
    <_>
      <internalNodes>
        0 -1 125035 5.9367939829826355e-03</internalNodes>
      <leafValues>
        5.5184088647365570e-02 -3.4800383448600769e-01</leafValues></_>
    <_>
      <internalNodes>
        0 -1 161679 -1.2939656153321266e-04</internalNodes>
      <leafValues>
        -1.8310040235519409e-01 1.0079011321067810e-01</leafValues></_>
    <_>
      <internalNodes>
        0 -1 126349 -6.2712060753256083e-04</internalNodes>
      <leafValues>
        1.3910195231437683e-01 -1.3114334642887115e-01</leafValues></_>
    <_>
      <internalNodes>
        0 -1 114449 -8.5076112300157547e-03</internalNodes>
      <leafValues>
        4.0758848190307617e-01 -4.3244391679763794e-02</leafValues></_>
    <_>
      <internalNodes>
        0 -1 125420 -1.4386258553713560e-03</internalNodes>
      <leafValues>
        2.1390984952449799e-01 -7.8147783875465393e-02</leafValues></_>
    <_>
      <internalNodes>
        0 -1 160136 -1.4552863314747810e-02</internalNodes>
      <leafValues>
        4.5399957895278931e-01 -3.4842204302549362e-02</leafValues></_>
    <_>
      <internalNodes>
        0 -1 157495 -1.1969080660492182e-03</internalNodes>
      <leafValues>
        -1.7179289460182190e-01 9.4065360724925995e-02</leafValues></_>
    <_>
      <internalNodes>
        0 -1 85274 1.2558586895465851e-03</internalNodes>
      <leafValues>
        -5.0561267882585526e-02 3.5076209902763367e-01</leafValues></_>
    <_>
      <internalNodes>
        0 -1 114905 2.2504678927361965e-03</internalNodes>
      <leafValues>
        6.9249086081981659e-02 -2.3705379664897919e-01</leafValues></_>
    <_>
      <internalNodes>
        0 -1 126397 1.1179930530488491e-02</internalNodes>
      <leafValues>
        -3.8083415478467941e-02 5.1243972778320313e-01</leafValues></_>
    <_>
      <internalNodes>
        0 -1 68943 6.0254149138927460e-03</internalNodes>
      <leafValues>
        -2.0015472546219826e-02 6.8562382459640503e-01</leafValues></_>
    <_>
      <internalNodes>
        0 -1 63644 9.9358111619949341e-03</internalNodes>
      <leafValues>
        -2.5605505332350731e-02 5.7585030794143677e-01</leafValues></_>
    <_>
      <internalNodes>
        0 -1 60362 5.3534877952188253e-04</internalNodes>
      <leafValues>
        6.7605189979076385e-02 -2.7663967013359070e-01</leafValues></_></weakClassifiers></stage1>
</opencv_storage>
