<?xml version="1.0"?>
<opencv_storage>
<cascade>
  <stageType>BOOST</stageType>
  <featureType>HAAR</featureType>
  <height>24</height>
  <width>24</width>
  <stageParams>
    <boostType>GAB</boostType>
    <minHitRate>9.9500000476837158e-01</minHitRate>
    <maxFalseAlarm>5.0000000000000000e-01</maxFalseAlarm>
    <weightTrimRate>9.4999999999999996e-01</weightTrimRate>
    <maxDepth>1</maxDepth>
    <maxWeakCount>100</maxWeakCount></stageParams>
  <featureParams>
    <maxCatCount>0</maxCatCount>
    <featSize>1</featSize>
    <mode>ALL</mode></featureParams>
  <stageNum>7</stageNum>
  <stages>
    <!-- stage 0 -->
    <_>
      <maxWeakCount>7</maxWeakCount>
      <stageThreshold>-1.6981742382049561e+00</stageThreshold>
      <weakClassifiers>
        <_>
          <internalNodes>
            0 -1 155 4.7831074334681034e-03</internalNodes>
          <leafValues>
            -7.4312305450439453e-01 3.9082568883895874e-01</leafValues></_>
        <_>
          <internalNodes>
            0 -1 176 -2.0181252621114254e-03</internalNodes>
          <leafValues>
            6.0807597637176514e-01 -4.4029566645622253e-01</leafValues></_>
        <_>
          <internalNodes>
            0 -1 177 1.1244224151596427e-03</internalNodes>
          <leafValues>
            -3.0852016806602478e-01 5.2153456211090088e-01</leafValues></_>
        <_>
          <internalNodes>
            0 -1 175 -5.6302854791283607e-03</internalNodes>
          <leafValues>
            5.4338228702545166e-01 -2.3107808828353882e-01</leafValues></_>
        <_>
          <internalNodes>
            0 -1 25 3.7519657053053379e-04</internalNodes>
          <leafValues>
            -2.8082418441772461e-01 3.8409429788589478e-01</leafValues></_>
        <_>
          <internalNodes>
            0 -1 5 -8.0791637301445007e-02</internalNodes>
          <leafValues>
            5.2544218301773071e-01 -1.9647082686424255e-01</leafValues></_>
        <_>
          <internalNodes>
            0 -1 174 1.1916224844753742e-02</internalNodes>
          <leafValues>
            -1.6278067231178284e-01 5.6948488950729370e-01</leafValues></_></weakClassifiers></_>
    <!-- stage 1 -->
    <_>
      <maxWeakCount>28</maxWeakCount>
      <stageThreshold>-1.8451260328292847e+00</stageThreshold>
      <weakClassifiers>
        <_>
          <internalNodes>
            0 -1 153 7.8465137630701065e-03</internalNodes>
          <leafValues>
            -7.0174360275268555e-01 8.1188119947910309e-02</leafValues></_>
        <_>
          <internalNodes>
            0 -1 163 7.5785638764500618e-03</internalNodes>
          <leafValues>
            -2.7836507558822632e-01 5.5449110269546509e-01</leafValues></_>
        <_>
          <internalNodes>
            0 -1 23 3.4059578180313110e-01</internalNodes>
          <leafValues>
            1.4045703411102295e-01 -5.4099792242050171e-01</leafValues></_>
        <_>
          <internalNodes>
            0 -1 139 -1.1122550815343857e-02</internalNodes>
          <leafValues>
            4.5142322778701782e-01 -1.6691368818283081e-01</leafValues></_>
        <_>
          <internalNodes>
            0 -1 132 -1.0885636508464813e-01</internalNodes>
          <leafValues>
            -4.0538635849952698e-01 1.5158607065677643e-01</leafValues></_>
        <_>
          <internalNodes>
            0 -1 9 7.7679589390754700e-02</internalNodes>
          <leafValues>
            1.0347885638475418e-01 -5.1652985811233521e-01</leafValues></_>
        <_>
          <internalNodes>
            0 -1 12 -3.3259883522987366e-01</internalNodes>
          <leafValues>
            -5.9073710441589355e-01 1.2988311052322388e-01</leafValues></_>
        <_>
          <internalNodes>
            0 -1 191 -5.0444219261407852e-02</internalNodes>
          <leafValues>
            -4.4983482360839844e-01 1.2229202687740326e-01</leafValues></_>
        <_>
          <internalNodes>
            0 -1 227 9.5867511117830873e-04</internalNodes>
          <leafValues>
            1.6631799936294556e-01 -2.8407427668571472e-01</leafValues></_>
        <_>
          <internalNodes>
            0 -1 120 -4.0485188364982605e-03</internalNodes>
          <leafValues>
            3.5523858666419983e-01 -1.3725335896015167e-01</leafValues></_>
        <_>
          <internalNodes>
            0 -1 110 2.2353804670274258e-03</internalNodes>
          <leafValues>
            1.4716038107872009e-01 -2.9494142532348633e-01</leafValues></_>
        <_>
          <internalNodes>
            0 -1 73 -1.6538290306925774e-02</internalNodes>
          <leafValues>
            2.8328117728233337e-01 -1.7348635196685791e-01</leafValues></_>
        <_>
          <internalNodes>
            0 -1 45 2.6960194110870361e-02</internalNodes>
          <leafValues>
            -1.3391780853271484e-01 4.9861860275268555e-01</leafValues></_>
        <_>
          <internalNodes>
            0 -1 157 -2.4043931625783443e-03</internalNodes>
          <leafValues>
            3.4951895475387573e-01 -1.1432860046625137e-01</leafValues></_>
        <_>
          <internalNodes>
            0 -1 226 -3.4829184412956238e-02</internalNodes>
          <leafValues>
            -5.5853205919265747e-01 7.8610524535179138e-02</leafValues></_>
        <_>
          <internalNodes>
            0 -1 58 1.2563668191432953e-02</internalNodes>
          <leafValues>
            -1.5671360492706299e-01 2.8180754184722900e-01</leafValues></_>
        <_>
          <internalNodes>
            0 -1 3 1.1880174279212952e-03</internalNodes>
          <leafValues>
            1.1701995879411697e-01 -3.5380101203918457e-01</leafValues></_>
        <_>
          <internalNodes>
            0 -1 4 -1.4975751750171185e-02</internalNodes>
          <leafValues>
            -3.6571419239044189e-01 1.2606419622898102e-01</leafValues></_>
        <_>
          <internalNodes>
            0 -1 74 -5.9997742064297199e-03</internalNodes>
          <leafValues>
            2.3514221608638763e-01 -1.7850193381309509e-01</leafValues></_>
        <_>
          <internalNodes>
            0 -1 218 -1.6547328414162621e-05</internalNodes>
          <leafValues>
            2.2554969787597656e-01 -1.7941610515117645e-01</leafValues></_>
        <_>
          <internalNodes>
            0 -1 62 6.6097468137741089e-02</internalNodes>
          <leafValues>
            -5.9636715799570084e-02 5.9608912467956543e-01</leafValues></_>
        <_>
          <internalNodes>
            0 -1 2 -2.0297355949878693e-03</internalNodes>
          <leafValues>
            -4.3315711617469788e-01 9.1375149786472321e-02</leafValues></_>
        <_>
          <internalNodes>
            0 -1 192 -1.3090142048895359e-02</internalNodes>
          <leafValues>
            7.2126388549804688e-01 -5.6741446256637573e-02</leafValues></_>
        <_>
          <internalNodes>
            0 -1 198 2.6305381208658218e-02</internalNodes>
          <leafValues>
            -7.6111212372779846e-02 4.1531127691268921e-01</leafValues></_>
        <_>
          <internalNodes>
            0 -1 194 -1.6044545173645020e-01</internalNodes>
          <leafValues>
            -8.2162082195281982e-01 4.8117876052856445e-02</leafValues></_>
        <_>
          <internalNodes>
            0 -1 8 1.0452119167894125e-03</internalNodes>
          <leafValues>
            1.3095475733280182e-01 -2.9593983292579651e-01</leafValues></_>
        <_>
          <internalNodes>
            0 -1 137 6.0067664890084416e-05</internalNodes>
          <leafValues>
            -1.6965810954570770e-01 2.2073303163051605e-01</leafValues></_>
        <_>
          <internalNodes>
            0 -1 112 2.0760712213814259e-03</internalNodes>
          <leafValues>
            1.4500953257083893e-01 -2.7441596984863281e-01</leafValues></_></weakClassifiers></_>
    <!-- stage 2 -->
    <_>
      <maxWeakCount>30</maxWeakCount>
      <stageThreshold>-1.8089271783828735e+00</stageThreshold>
      <weakClassifiers>
        <_>
          <internalNodes>
            0 -1 183 -8.5193179547786713e-03</internalNodes>
          <leafValues>
            3.9495798945426941e-01 -6.7561262845993042e-01</leafValues></_>
        <_>
          <internalNodes>
            0 -1 162 6.0746055096387863e-03</internalNodes>
          <leafValues>
            -2.7480182051658630e-01 4.5014423131942749e-01</leafValues></_>
        <_>
          <internalNodes>
            0 -1 53 -4.5101490616798401e-01</internalNodes>
          <leafValues>
            -7.1666038036346436e-01 8.8932424783706665e-02</leafValues></_>
        <_>
          <internalNodes>
            0 -1 200 1.6382856294512749e-02</internalNodes>
          <leafValues>
            2.0053361356258392e-01 -3.6366418004035950e-01</leafValues></_>
        <_>
          <internalNodes>
            0 -1 158 4.6170940622687340e-03</internalNodes>
          <leafValues>
            -1.3247744739055634e-01 5.0026148557662964e-01</leafValues></_>
        <_>
          <internalNodes>
            0 -1 164 -1.5913460403680801e-02</internalNodes>
          <leafValues>
            4.1400256752967834e-01 -1.3434214890003204e-01</leafValues></_>
        <_>
          <internalNodes>
            0 -1 69 1.7358274199068546e-03</internalNodes>
          <leafValues>
            1.5235333144664764e-01 -3.5736623406410217e-01</leafValues></_>
        <_>
          <internalNodes>
            0 -1 41 -3.2555689103901386e-03</internalNodes>
          <leafValues>
            -3.4797945618629456e-01 1.4742618799209595e-01</leafValues></_>
        <_>
          <internalNodes>
            0 -1 145 -2.7265765238553286e-03</internalNodes>
          <leafValues>
            3.4221404790878296e-01 -1.4058768749237061e-01</leafValues></_>
        <_>
          <internalNodes>
            0 -1 94 6.4615663141012192e-03</internalNodes>
          <leafValues>
            -1.2072446942329407e-01 3.9104554057121277e-01</leafValues></_>
        <_>
          <internalNodes>
            0 -1 122 -6.6407127305865288e-03</internalNodes>
          <leafValues>
            4.8540690541267395e-01 -1.0493832826614380e-01</leafValues></_>
        <_>
          <internalNodes>
            0 -1 13 3.6957600712776184e-01</internalNodes>
          <leafValues>
            9.2068605124950409e-02 -6.4920037984848022e-01</leafValues></_>
        <_>
          <internalNodes>
            0 -1 172 -1.5961207449436188e-02</internalNodes>
          <leafValues>
            2.5163280963897705e-01 -1.8022385239601135e-01</leafValues></_>
        <_>
          <internalNodes>
            0 -1 83 -9.7289040684700012e-02</internalNodes>
          <leafValues>
            6.8908107280731201e-01 -5.0142504274845123e-02</leafValues></_>
        <_>
          <internalNodes>
            0 -1 88 -2.0829174667596817e-02</internalNodes>
          <leafValues>
            4.3730714917182922e-01 -8.3413384854793549e-02</leafValues></_>
        <_>
          <internalNodes>
            0 -1 40 1.4152906369417906e-03</internalNodes>
          <leafValues>
            1.2026754021644592e-01 -3.9165452122688293e-01</leafValues></_>
        <_>
          <internalNodes>
            0 -1 50 4.3886837374884635e-05</internalNodes>
          <leafValues>
            -1.8749907612800598e-01 2.0972646772861481e-01</leafValues></_>
        <_>
          <internalNodes>
            0 -1 129 2.3348605260252953e-02</internalNodes>
          <leafValues>
            -8.8327758014202118e-02 3.5216632485389709e-01</leafValues></_>
        <_>
          <internalNodes>
            0 -1 44 -1.6471280250698328e-03</internalNodes>
          <leafValues>
            -4.3413478136062622e-01 8.8195294141769409e-02</leafValues></_>
        <_>
          <internalNodes>
            0 -1 101 1.4560200273990631e-02</internalNodes>
          <leafValues>
            -9.1729015111923218e-02 4.1744238138198853e-01</leafValues></_>
        <_>
          <internalNodes>
            0 -1 114 1.3473355770111084e-01</internalNodes>
          <leafValues>
            4.2738579213619232e-02 -8.7496465444564819e-01</leafValues></_>
        <_>
          <internalNodes>
            0 -1 31 1.7760507762432098e-03</internalNodes>
          <leafValues>
            8.2529880106449127e-02 -3.7714576721191406e-01</leafValues></_>
        <_>
          <internalNodes>
            0 -1 197 -2.9158964753150940e-04</internalNodes>
          <leafValues>
            2.3934091627597809e-01 -1.5200299024581909e-01</leafValues></_>
        <_>
          <internalNodes>
            0 -1 188 5.5089117959141731e-03</internalNodes>
          <leafValues>
            -8.6945936083793640e-02 4.0553858876228333e-01</leafValues></_>
        <_>
          <internalNodes>
            0 -1 91 -3.8154885172843933e-02</internalNodes>
          <leafValues>
            -2.9328268766403198e-01 1.2069085985422134e-01</leafValues></_>
        <_>
          <internalNodes>
            0 -1 222 1.1666979407891631e-03</internalNodes>
          <leafValues>
            1.2236224859952927e-01 -2.7231094241142273e-01</leafValues></_>
        <_>
          <internalNodes>
            0 -1 169 -1.0892175851040520e-05</internalNodes>
          <leafValues>
            2.3574386537075043e-01 -1.5900127589702606e-01</leafValues></_>
        <_>
          <internalNodes>
            0 -1 125 -6.9281128235161304e-03</internalNodes>
          <leafValues>
            6.3325661420822144e-01 -5.5057585239410400e-02</leafValues></_>
        <_>
          <internalNodes>
            0 -1 130 -2.1524216979742050e-02</internalNodes>
          <leafValues>
            8.0542314052581787e-01 -3.5273112356662750e-02</leafValues></_>
        <_>
          <internalNodes>
            0 -1 223 -1.8866911996155977e-03</internalNodes>
          <leafValues>
            -4.0165063738822937e-01 9.4442456960678101e-02</leafValues></_></weakClassifiers></_>
    <!-- stage 3 -->
    <_>
      <maxWeakCount>39</maxWeakCount>
      <stageThreshold>-1.7741975784301758e+00</stageThreshold>
      <weakClassifiers>
        <_>
          <internalNodes>
            0 -1 121 2.8480492532253265e-02</internalNodes>
          <leafValues>
            -6.6847193241119385e-01 3.6190477013587952e-01</leafValues></_>
        <_>
          <internalNodes>
            0 -1 141 1.8322253599762917e-03</internalNodes>
          <leafValues>
            -2.5447532534599304e-01 3.5343399643898010e-01</leafValues></_>
        <_>
          <internalNodes>
            0 -1 99 -6.9728242233395576e-03</internalNodes>
          <leafValues>
            4.7108584642410278e-01 -1.1243364959955215e-01</leafValues></_>
        <_>
          <internalNodes>
            0 -1 220 -1.2653693556785583e-01</internalNodes>
          <leafValues>
            -3.3278587460517883e-01 1.4310824871063232e-01</leafValues></_>
        <_>
          <internalNodes>
            0 -1 39 2.4480447173118591e-02</internalNodes>
          <leafValues>
            9.7719699144363403e-02 -4.3511909246444702e-01</leafValues></_>
        <_>
          <internalNodes>
            0 -1 142 5.1083629950881004e-03</internalNodes>
          <leafValues>
            -8.2206822931766510e-02 5.2583748102188110e-01</leafValues></_>
        <_>
          <internalNodes>
            0 -1 145 -4.8489668406546116e-03</internalNodes>
          <leafValues>
            3.7689483165740967e-01 -1.0665441304445267e-01</leafValues></_>
        <_>
          <internalNodes>
            0 -1 68 -4.1618668474256992e-03</internalNodes>
          <leafValues>
            -2.9586467146873474e-01 1.5897865593433380e-01</leafValues></_>
        <_>
          <internalNodes>
            0 -1 134 1.2272411957383156e-02</internalNodes>
          <leafValues>
            -1.0233847796916962e-01 4.2904758453369141e-01</leafValues></_>
        <_>
          <internalNodes>
            0 -1 38 4.0460258722305298e-02</internalNodes>
          <leafValues>
            8.7927751243114471e-02 -4.3464896082878113e-01</leafValues></_>
        <_>
          <internalNodes>
            0 -1 206 9.5229584258049726e-04</internalNodes>
          <leafValues>
            1.4619967341423035e-01 -2.6693239808082581e-01</leafValues></_>
        <_>
          <internalNodes>
            0 -1 66 7.8647760674357414e-03</internalNodes>
          <leafValues>
            -5.4225571453571320e-02 7.0983004570007324e-01</leafValues></_>
        <_>
          <internalNodes>
            0 -1 103 1.2071802280843258e-02</internalNodes>
          <leafValues>
            -4.1123595088720322e-02 6.4507550001144409e-01</leafValues></_>
        <_>
          <internalNodes>
            0 -1 19 -4.9451291561126709e-03</internalNodes>
          <leafValues>
            -3.7559667229652405e-01 1.0038094967603683e-01</leafValues></_>
        <_>
          <internalNodes>
            0 -1 51 4.6448397915810347e-04</internalNodes>
          <leafValues>
            1.1187236011028290e-01 -2.7358359098434448e-01</leafValues></_>
        <_>
          <internalNodes>
            0 -1 208 7.5864413520321250e-04</internalNodes>
          <leafValues>
            -1.8964497745037079e-01 1.7527095973491669e-01</leafValues></_>
        <_>
          <internalNodes>
            0 -1 123 -2.7398555539548397e-03</internalNodes>
          <leafValues>
            3.7412965297698975e-01 -9.1592378914356232e-02</leafValues></_>
        <_>
          <internalNodes>
            0 -1 48 9.7963735461235046e-03</internalNodes>
          <leafValues>
            -3.9644725620746613e-02 6.9396668672561646e-01</leafValues></_>
        <_>
          <internalNodes>
            0 -1 213 1.0277936780767050e-05</internalNodes>
          <leafValues>
            -1.4639008045196533e-01 2.1169744431972504e-01</leafValues></_>
        <_>
          <internalNodes>
            0 -1 30 -1.3991300947964191e-03</internalNodes>
          <leafValues>
            -2.3361657559871674e-01 1.4017501473426819e-01</leafValues></_>
        <_>
          <internalNodes>
            0 -1 21 2.3107305169105530e-02</internalNodes>
          <leafValues>
            1.1641173064708710e-01 -3.4052640199661255e-01</leafValues></_>
        <_>
          <internalNodes>
            0 -1 211 -4.1024010628461838e-02</internalNodes>
          <leafValues>
            -4.3334048986434937e-01 6.9057688117027283e-02</leafValues></_>
        <_>
          <internalNodes>
            0 -1 152 3.8627777248620987e-03</internalNodes>
          <leafValues>
            -8.8782936334609985e-02 3.6166581511497498e-01</leafValues></_>
        <_>
          <internalNodes>
            0 -1 87 1.0102324187755585e-02</internalNodes>
          <leafValues>
            -4.3913833796977997e-02 6.1148816347122192e-01</leafValues></_>
        <_>
          <internalNodes>
            0 -1 210 3.2096416689455509e-03</internalNodes>
          <leafValues>
            1.2851895391941071e-01 -2.3367598652839661e-01</leafValues></_>
        <_>
          <internalNodes>
            0 -1 131 -1.0483534075319767e-02</internalNodes>
          <leafValues>
            4.4752299785614014e-01 -7.1575030684471130e-02</leafValues></_>
        <_>
          <internalNodes>
            0 -1 126 5.5540981702506542e-03</internalNodes>
          <leafValues>
            -3.5618811845779419e-02 7.5522923469543457e-01</leafValues></_>
        <_>
          <internalNodes>
            0 -1 151 1.1768577620387077e-02</internalNodes>
          <leafValues>
            -3.6335416138172150e-02 7.2400885820388794e-01</leafValues></_>
        <_>
          <internalNodes>
            0 -1 161 -3.3160527236759663e-03</internalNodes>
          <leafValues>
            5.5484253168106079e-01 -4.6105537563562393e-02</leafValues></_>
        <_>
          <internalNodes>
            0 -1 180 -1.1791421457019169e-05</internalNodes>
          <leafValues>
            1.9696074724197388e-01 -1.4340534806251526e-01</leafValues></_>
        <_>
          <internalNodes>
            0 -1 159 3.8040526211261749e-02</internalNodes>
          <leafValues>
            -6.9458343088626862e-02 4.1916784644126892e-01</leafValues></_>
        <_>
          <internalNodes>
            0 -1 1 3.3434611395932734e-04</internalNodes>
          <leafValues>
            1.0808309912681580e-01 -3.0634331703186035e-01</leafValues></_>
        <_>
          <internalNodes>
            0 -1 219 -1.6834929119795561e-03</internalNodes>
          <leafValues>
            1.9189168512821198e-01 -1.6198393702507019e-01</leafValues></_>
        <_>
          <internalNodes>
            0 -1 108 5.9470231644809246e-03</internalNodes>
          <leafValues>
            7.4312724173069000e-02 -4.0516999363899231e-01</leafValues></_>
        <_>
          <internalNodes>
            0 -1 95 3.1692725606262684e-03</internalNodes>
          <leafValues>
            -4.8238772898912430e-02 7.2346365451812744e-01</leafValues></_>
        <_>
          <internalNodes>
            0 -1 214 8.0462172627449036e-04</internalNodes>
          <leafValues>
            1.1201189458370209e-01 -2.8958353400230408e-01</leafValues></_>
        <_>
          <internalNodes>
            0 -1 203 4.7729481011629105e-03</internalNodes>
          <leafValues>
            -6.7472636699676514e-02 4.5540502667427063e-01</leafValues></_>
        <_>
          <internalNodes>
            0 -1 127 6.9658840075135231e-03</internalNodes>
          <leafValues>
            -4.7656178474426270e-02 5.4734706878662109e-01</leafValues></_>
        <_>
          <internalNodes>
            0 -1 170 1.2171119451522827e-03</internalNodes>
          <leafValues>
            5.4942622780799866e-02 -5.6840020418167114e-01</leafValues></_></weakClassifiers></_>
    <!-- stage 4 -->
    <_>
      <maxWeakCount>43</maxWeakCount>
      <stageThreshold>-1.6312190294265747e+00</stageThreshold>
      <weakClassifiers>
        <_>
          <internalNodes>
            0 -1 136 6.8403713405132294e-02</internalNodes>
          <leafValues>
            -6.6224271059036255e-01 3.4806630015373230e-01</leafValues></_>
        <_>
          <internalNodes>
            0 -1 160 2.4190079420804977e-02</internalNodes>
          <leafValues>
            -1.8245469033718109e-01 6.3411539793014526e-01</leafValues></_>
        <_>
          <internalNodes>
            0 -1 98 -1.0519750416278839e-02</internalNodes>
          <leafValues>
            6.0705733299255371e-01 -6.1620458960533142e-02</leafValues></_>
        <_>
          <internalNodes>
            0 -1 154 1.3107858598232269e-02</internalNodes>
          <leafValues>
            -8.8218919932842255e-02 4.1281363368034363e-01</leafValues></_>
        <_>
          <internalNodes>
            0 -1 116 -1.8400141969323158e-02</internalNodes>
          <leafValues>
            6.3108253479003906e-01 -4.2824529111385345e-02</leafValues></_>
        <_>
          <internalNodes>
            0 -1 57 -2.0906554535031319e-02</internalNodes>
          <leafValues>
            7.0985788106918335e-01 -3.1955372542142868e-02</leafValues></_>
        <_>
          <internalNodes>
            0 -1 65 1.1632125824689865e-02</internalNodes>
          <leafValues>
            -9.6933677792549133e-02 2.8127434849739075e-01</leafValues></_>
        <_>
          <internalNodes>
            0 -1 204 8.4937817882746458e-04</internalNodes>
          <leafValues>
            9.8429091274738312e-02 -2.9309409856796265e-01</leafValues></_>
        <_>
          <internalNodes>
            0 -1 138 6.9073140621185303e-03</internalNodes>
          <leafValues>
            -5.0632283091545105e-02 5.8713632822036743e-01</leafValues></_>
        <_>
          <internalNodes>
            0 -1 46 7.5214993557892740e-05</internalNodes>
          <leafValues>
            -1.1938214302062988e-01 2.2956115007400513e-01</leafValues></_>
        <_>
          <internalNodes>
            0 -1 52 -4.9223110079765320e-02</internalNodes>
          <leafValues>
            2.4998296797275543e-01 -1.3078920543193817e-01</leafValues></_>
        <_>
          <internalNodes>
            0 -1 90 1.7281705141067505e-01</internalNodes>
          <leafValues>
            8.4486626088619232e-02 -4.2976802587509155e-01</leafValues></_>
        <_>
          <internalNodes>
            0 -1 60 -3.8720963057130575e-03</internalNodes>
          <leafValues>
            -2.8042241930961609e-01 1.1396487057209015e-01</leafValues></_>
        <_>
          <internalNodes>
            0 -1 61 1.9163719844073057e-03</internalNodes>
          <leafValues>
            8.8944226503372192e-02 -3.5857310891151428e-01</leafValues></_>
        <_>
          <internalNodes>
            0 -1 135 1.2794050388038158e-02</internalNodes>
          <leafValues>
            -3.2837830483913422e-02 6.2074768543243408e-01</leafValues></_>
        <_>
          <internalNodes>
            0 -1 199 -1.0150081943720579e-03</internalNodes>
          <leafValues>
            -3.7484762072563171e-01 7.2656273841857910e-02</leafValues></_>
        <_>
          <internalNodes>
            0 -1 11 -2.5092190504074097e-01</internalNodes>
          <leafValues>
            -7.2371041774749756e-01 3.4547362476587296e-02</leafValues></_>
        <_>
          <internalNodes>
            0 -1 150 1.4199852557794657e-05</internalNodes>
          <leafValues>
            -1.4593812823295593e-01 1.9158443808555603e-01</leafValues></_>
        <_>
          <internalNodes>
            0 -1 27 -4.4178171083331108e-03</internalNodes>
          <leafValues>
            1.4643257856369019e-01 -1.8125960230827332e-01</leafValues></_>
        <_>
          <internalNodes>
            0 -1 36 1.8955513834953308e-01</internalNodes>
          <leafValues>
            7.9841069877147675e-02 -3.0544471740722656e-01</leafValues></_>
        <_>
          <internalNodes>
            0 -1 124 4.3554692529141903e-03</internalNodes>
          <leafValues>
            -6.7115500569343567e-02 3.8019102811813354e-01</leafValues></_>
        <_>
          <internalNodes>
            0 -1 55 -2.6996817905455828e-04</internalNodes>
          <leafValues>
            -2.8670844435691833e-01 9.1451175510883331e-02</leafValues></_>
        <_>
          <internalNodes>
            0 -1 133 -3.2348303648177534e-05</internalNodes>
          <leafValues>
            1.8096339702606201e-01 -1.3862046599388123e-01</leafValues></_>
        <_>
          <internalNodes>
            0 -1 81 -9.2857461422681808e-03</internalNodes>
          <leafValues>
            1.9384895265102386e-01 -1.3282299041748047e-01</leafValues></_>
        <_>
          <internalNodes>
            0 -1 64 2.3302428424358368e-02</internalNodes>
          <leafValues>
            -9.7918160259723663e-02 2.6404318213462830e-01</leafValues></_>
        <_>
          <internalNodes>
            0 -1 72 9.9433492869138718e-04</internalNodes>
          <leafValues>
            8.8332623243331909e-02 -3.0376374721527100e-01</leafValues></_>
        <_>
          <internalNodes>
            0 -1 56 3.6880429252050817e-04</internalNodes>
          <leafValues>
            8.8559299707412720e-02 -2.6434040069580078e-01</leafValues></_>
        <_>
          <internalNodes>
            0 -1 184 -7.4225440621376038e-03</internalNodes>
          <leafValues>
            1.5681023895740509e-01 -1.6196222603321075e-01</leafValues></_>
        <_>
          <internalNodes>
            0 -1 37 5.0606437027454376e-02</internalNodes>
          <leafValues>
            -6.4270205795764923e-02 4.7230106592178345e-01</leafValues></_>
        <_>
          <internalNodes>
            0 -1 140 -2.9208268970251083e-03</internalNodes>
          <leafValues>
            2.4405418336391449e-01 -1.0034753382205963e-01</leafValues></_>
        <_>
          <internalNodes>
            0 -1 166 4.9105274956673384e-04</internalNodes>
          <leafValues>
            -1.0792525112628937e-01 2.5664833188056946e-01</leafValues></_>
        <_>
          <internalNodes>
            0 -1 166 -4.2896036757156253e-04</internalNodes>
          <leafValues>
            2.5675171613693237e-01 -1.1660867184400558e-01</leafValues></_>
        <_>
          <internalNodes>
            0 -1 33 -7.1306357858702540e-04</internalNodes>
          <leafValues>
            -4.3283471465110779e-01 7.2152346372604370e-02</leafValues></_>
        <_>
          <internalNodes>
            0 -1 167 -3.3870055340230465e-03</internalNodes>
          <leafValues>
            1.8910972774028778e-01 -1.4172005653381348e-01</leafValues></_>
        <_>
          <internalNodes>
            0 -1 224 -8.9731410844251513e-04</internalNodes>
          <leafValues>
            -3.3280983567237854e-01 8.1007435917854309e-02</leafValues></_>
        <_>
          <internalNodes>
            0 -1 34 -2.3228530585765839e-01</internalNodes>
          <leafValues>
            -4.7883656620979309e-01 5.5520124733448029e-02</leafValues></_>
        <_>
          <internalNodes>
            0 -1 173 1.4523083344101906e-02</internalNodes>
          <leafValues>
            -3.7117321044206619e-02 7.8365445137023926e-01</leafValues></_>
        <_>
          <internalNodes>
            0 -1 77 4.7318455763161182e-03</internalNodes>
          <leafValues>
            -3.0053338035941124e-02 6.2695753574371338e-01</leafValues></_>
        <_>
          <internalNodes>
            0 -1 89 2.8741903952322900e-04</internalNodes>
          <leafValues>
            8.8883019983768463e-02 -2.6802527904510498e-01</leafValues></_>
        <_>
          <internalNodes>
            0 -1 143 1.2053113096044399e-05</internalNodes>
          <leafValues>
            -1.5704807639122009e-01 1.6402840614318848e-01</leafValues></_>
        <_>
          <internalNodes>
            0 -1 181 -4.2260668124072254e-04</internalNodes>
          <leafValues>
            2.3239487409591675e-01 -1.2195214629173279e-01</leafValues></_>
        <_>
          <internalNodes>
            0 -1 196 -1.5289613656932488e-05</internalNodes>
          <leafValues>
            1.7873035371303558e-01 -1.3754737377166748e-01</leafValues></_>
        <_>
          <internalNodes>
            0 -1 165 1.2707570567727089e-02</internalNodes>
          <leafValues>
            -1.0667356848716736e-01 2.3294055461883545e-01</leafValues></_></weakClassifiers></_>
    <!-- stage 5 -->
    <_>
      <maxWeakCount>36</maxWeakCount>
      <stageThreshold>-1.5152064561843872e+00</stageThreshold>
      <weakClassifiers>
        <_>
          <internalNodes>
            0 -1 96 1.6535714268684387e-01</internalNodes>
          <leafValues>
            -6.6085457801818848e-01 4.2857143282890320e-01</leafValues></_>
        <_>
          <internalNodes>
            0 -1 22 3.4130966663360596e-01</internalNodes>
          <leafValues>
            -3.1471967697143555e-02 -5.3217577934265137e-01</leafValues></_>
        <_>
          <internalNodes>
            0 -1 17 -6.5690092742443085e-03</internalNodes>
          <leafValues>
            -2.9227900505065918e-01 1.4410886168479919e-01</leafValues></_>
        <_>
          <internalNodes>
            0 -1 78 -3.9066120982170105e-02</internalNodes>
          <leafValues>
            -2.9258057475090027e-01 1.2054393440485001e-01</leafValues></_>
        <_>
          <internalNodes>
            0 -1 33 6.7957054125145078e-04</internalNodes>
          <leafValues>
            7.3226891458034515e-02 -4.4008263945579529e-01</leafValues></_>
        <_>
          <internalNodes>
            0 -1 93 3.4800283610820770e-03</internalNodes>
          <leafValues>
            -1.2033256143331528e-01 2.3905879259109497e-01</leafValues></_>
        <_>
          <internalNodes>
            0 -1 63 -6.7216306924819946e-02</internalNodes>
          <leafValues>
            5.9293580055236816e-01 -4.8178128898143768e-02</leafValues></_>
        <_>
          <internalNodes>
            0 -1 79 1.3367392821237445e-03</internalNodes>
          <leafValues>
            6.0217071324586868e-02 -4.3312856554985046e-01</leafValues></_>
        <_>
          <internalNodes>
            0 -1 187 1.3341000303626060e-02</internalNodes>
          <leafValues>
            -5.8833457529544830e-02 3.7611997127532959e-01</leafValues></_>
        <_>
          <internalNodes>
            0 -1 105 -5.7375244796276093e-03</internalNodes>
          <leafValues>
            2.1838916838169098e-01 -1.5499919652938843e-01</leafValues></_>
        <_>
          <internalNodes>
            0 -1 80 -1.6603434924036264e-03</internalNodes>
          <leafValues>
            -2.9368385672569275e-01 8.1976361572742462e-02</leafValues></_>
        <_>
          <internalNodes>
            0 -1 113 -1.1379020288586617e-02</internalNodes>
          <leafValues>
            1.9870856404304504e-01 -1.3224680721759796e-01</leafValues></_>
        <_>
          <internalNodes>
            0 -1 84 7.0506677031517029e-02</internalNodes>
          <leafValues>
            -7.1289718151092529e-02 4.7060123085975647e-01</leafValues></_>
        <_>
          <internalNodes>
            0 -1 171 -1.0150852613151073e-03</internalNodes>
          <leafValues>
            -2.7903929352760315e-01 8.8856481015682220e-02</leafValues></_>
        <_>
          <internalNodes>
            0 -1 148 7.5131969060748816e-04</internalNodes>
          <leafValues>
            1.3234870135784149e-01 -1.9719788432121277e-01</leafValues></_>
        <_>
          <internalNodes>
            0 -1 32 -4.0643888496560976e-05</internalNodes>
          <leafValues>
            1.8503347039222717e-01 -1.4933802187442780e-01</leafValues></_>
        <_>
          <internalNodes>
            0 -1 20 -2.2137377411127090e-02</internalNodes>
          <leafValues>
            2.9393246769905090e-01 -8.7971284985542297e-02</leafValues></_>
        <_>
          <internalNodes>
            0 -1 102 -1.4940027613192797e-03</internalNodes>
          <leafValues>
            2.0145383477210999e-01 -1.1954739689826965e-01</leafValues></_>
        <_>
          <internalNodes>
            0 -1 67 1.5452936291694641e-01</internalNodes>
          <leafValues>
            3.2934296876192093e-02 -7.7724957466125488e-01</leafValues></_>
        <_>
          <internalNodes>
            0 -1 0 -9.2376640532165766e-04</internalNodes>
          <leafValues>
            -4.9578917026519775e-01 4.4432494789361954e-02</leafValues></_>
        <_>
          <internalNodes>
            0 -1 117 -2.3908615112304688e-02</internalNodes>
          <leafValues>
            2.0096462965011597e-01 -1.3452272117137909e-01</leafValues></_>
        <_>
          <internalNodes>
            0 -1 106 -2.1505155600607395e-03</internalNodes>
          <leafValues>
            -2.5261190533638000e-01 1.0409103333950043e-01</leafValues></_>
        <_>
          <internalNodes>
            0 -1 82 -1.7477806657552719e-02</internalNodes>
          <leafValues>
            2.5360655784606934e-01 -9.5346383750438690e-02</leafValues></_>
        <_>
          <internalNodes>
            0 -1 149 -1.7698697745800018e-02</internalNodes>
          <leafValues>
            6.3368242979049683e-01 -4.3854273855686188e-02</leafValues></_>
        <_>
          <internalNodes>
            0 -1 26 3.2363705337047577e-02</internalNodes>
          <leafValues>
            -4.9116760492324829e-02 4.4159033894538879e-01</leafValues></_>
        <_>
          <internalNodes>
            0 -1 29 2.5786345358937979e-03</internalNodes>
          <leafValues>
            4.7406062483787537e-02 -5.3310346603393555e-01</leafValues></_>
        <_>
          <internalNodes>
            0 -1 225 -1.3627916574478149e-01</internalNodes>
          <leafValues>
            -6.6111266613006592e-01 3.2652169466018677e-02</leafValues></_>
        <_>
          <internalNodes>
            0 -1 10 2.6446678675711155e-03</internalNodes>
          <leafValues>
            3.7860803306102753e-02 -5.2882015705108643e-01</leafValues></_>
        <_>
          <internalNodes>
            0 -1 207 -1.7329566180706024e-03</internalNodes>
          <leafValues>
            2.5233840942382813e-01 -9.4951003789901733e-02</leafValues></_>
        <_>
          <internalNodes>
            0 -1 217 -9.3630433548241854e-04</internalNodes>
          <leafValues>
            2.3318825662136078e-01 -1.1682269722223282e-01</leafValues></_>
        <_>
          <internalNodes>
            0 -1 144 -6.4112112158909440e-04</internalNodes>
          <leafValues>
            2.3635779321193695e-01 -1.0724052786827087e-01</leafValues></_>
        <_>
          <internalNodes>
            0 -1 229 -8.5431261686608195e-04</internalNodes>
          <leafValues>
            -4.7188490629196167e-01 5.5245950818061829e-02</leafValues></_>
        <_>
          <internalNodes>
            0 -1 189 -4.6238761569838971e-05</internalNodes>
          <leafValues>
            1.6716904938220978e-01 -1.5402069687843323e-01</leafValues></_>
        <_>
          <internalNodes>
            0 -1 85 3.3469794288976118e-05</internalNodes>
          <leafValues>
            -1.3799329102039337e-01 1.8290042877197266e-01</leafValues></_>
        <_>
          <internalNodes>
            0 -1 168 -1.2224196325405501e-05</internalNodes>
          <leafValues>
            1.6680796444416046e-01 -1.3598422706127167e-01</leafValues></_>
        <_>
          <internalNodes>
            0 -1 76 -1.6399059444665909e-02</internalNodes>
          <leafValues>
            2.5754010677337646e-01 -9.6790045499801636e-02</leafValues></_></weakClassifiers></_>
    <!-- stage 6 -->
    <_>
      <maxWeakCount>50</maxWeakCount>
      <stageThreshold>-1.5339660644531250e+00</stageThreshold>
      <weakClassifiers>
        <_>
          <internalNodes>
            0 -1 75 2.2286406159400940e-01</internalNodes>
          <leafValues>
            -6.5674793720245361e-01 2.3976607620716095e-01</leafValues></_>
        <_>
          <internalNodes>
            0 -1 179 2.1172758191823959e-02</internalNodes>
          <leafValues>
            -1.7762623727321625e-01 5.4617404937744141e-01</leafValues></_>
        <_>
          <internalNodes>
            0 -1 15 -5.8645103126764297e-03</internalNodes>
          <leafValues>
            -2.6782301068305969e-01 1.2049645185470581e-01</leafValues></_>
        <_>
          <internalNodes>
            0 -1 195 1.2188054621219635e-02</internalNodes>
          <leafValues>
            -5.2516900002956390e-02 5.0709915161132813e-01</leafValues></_>
        <_>
          <internalNodes>
            0 -1 228 -6.5556296613067389e-04</internalNodes>
          <leafValues>
            -3.7899160385131836e-01 7.5201474130153656e-02</leafValues></_>
        <_>
          <internalNodes>
            0 -1 209 4.4910646975040436e-02</internalNodes>
          <leafValues>
            -5.1008790731430054e-02 3.6203038692474365e-01</leafValues></_>
        <_>
          <internalNodes>
            0 -1 6 -6.5164431929588318e-02</internalNodes>
          <leafValues>
            4.0989747643470764e-01 -5.8551888912916183e-02</leafValues></_>
        <_>
          <internalNodes>
            0 -1 28 -2.9337652027606964e-02</internalNodes>
          <leafValues>
            7.2491848468780518e-01 3.6592415999621153e-03</leafValues></_>
        <_>
          <internalNodes>
            0 -1 54 -1.4850844163447618e-03</internalNodes>
          <leafValues>
            -3.0713921785354614e-01 7.6505430042743683e-02</leafValues></_>
        <_>
          <internalNodes>
            0 -1 14 1.0623940825462341e-01</internalNodes>
          <leafValues>
            -6.6047869622707367e-02 3.9695861935615540e-01</leafValues></_>
        <_>
          <internalNodes>
            0 -1 100 -5.9939278289675713e-03</internalNodes>
          <leafValues>
            1.9307009875774384e-01 -1.1259397864341736e-01</leafValues></_>
        <_>
          <internalNodes>
            0 -1 212 -2.5746843311935663e-03</internalNodes>
          <leafValues>
            2.8363457322120667e-01 -6.5730966627597809e-02</leafValues></_>
        <_>
          <internalNodes>
            0 -1 215 1.1496646329760551e-03</internalNodes>
          <leafValues>
            3.6327641457319260e-02 -5.2136820554733276e-01</leafValues></_>
        <_>
          <internalNodes>
            0 -1 97 1.2609339319169521e-03</internalNodes>
          <leafValues>
            -7.8418910503387451e-02 2.6637643575668335e-01</leafValues></_>
        <_>
          <internalNodes>
            0 -1 118 -5.5388179607689381e-03</internalNodes>
          <leafValues>
            2.7602213621139526e-01 -8.4689468145370483e-02</leafValues></_>
        <_>
          <internalNodes>
            0 -1 43 -8.3645957056432962e-04</internalNodes>
          <leafValues>
            -4.3969163298606873e-01 4.5691695064306259e-02</leafValues></_>
        <_>
          <internalNodes>
            0 -1 115 4.2290790588594973e-05</internalNodes>
          <leafValues>
            -1.4767663180828094e-01 1.6612367331981659e-01</leafValues></_>
        <_>
          <internalNodes>
            0 -1 59 -4.5258893806021661e-05</internalNodes>
          <leafValues>
            1.6646383702754974e-01 -1.5692442655563354e-01</leafValues></_>
        <_>
          <internalNodes>
            0 -1 202 -5.1941419951617718e-04</internalNodes>
          <leafValues>
            1.9092951714992523e-01 -1.4832545816898346e-01</leafValues></_>
        <_>
          <internalNodes>
            0 -1 216 1.2035486288368702e-03</internalNodes>
          <leafValues>
            6.2808595597743988e-02 -3.6700811982154846e-01</leafValues></_>
        <_>
          <internalNodes>
            0 -1 201 -3.7690037861466408e-03</internalNodes>
          <leafValues>
            1.8068450689315796e-01 -1.1554058641195297e-01</leafValues></_>
        <_>
          <internalNodes>
            0 -1 7 1.0282157361507416e-01</internalNodes>
          <leafValues>
            -4.5924302190542221e-02 5.1556855440139771e-01</leafValues></_>
        <_>
          <internalNodes>
            0 -1 35 1.8474368844181299e-03</internalNodes>
          <leafValues>
            6.3091605901718140e-02 -3.7507492303848267e-01</leafValues></_>
        <_>
          <internalNodes>
            0 -1 193 -1.9652307964861393e-03</internalNodes>
          <leafValues>
            1.6003964841365814e-01 -1.3154564797878265e-01</leafValues></_>
        <_>
          <internalNodes>
            0 -1 190 -1.0892175851040520e-05</internalNodes>
          <leafValues>
            1.6790880262851715e-01 -1.2907651066780090e-01</leafValues></_>
        <_>
          <internalNodes>
            0 -1 185 4.2309779673814774e-03</internalNodes>
          <leafValues>
            -5.9658270329236984e-02 3.8153114914894104e-01</leafValues></_>
        <_>
          <internalNodes>
            0 -1 119 5.0668511539697647e-03</internalNodes>
          <leafValues>
            -8.7628908455371857e-02 2.3860953748226166e-01</leafValues></_>
        <_>
          <internalNodes>
            0 -1 47 3.7113782018423080e-03</internalNodes>
          <leafValues>
            -1.0142717510461807e-01 2.1916846930980682e-01</leafValues></_>
        <_>
          <internalNodes>
            0 -1 49 1.1446967255324125e-03</internalNodes>
          <leafValues>
            4.4068958610296249e-02 -5.4564338922500610e-01</leafValues></_>
        <_>
          <internalNodes>
            0 -1 128 6.6595833050087094e-04</internalNodes>
          <leafValues>
            6.8561270833015442e-02 -2.9518491029739380e-01</leafValues></_>
        <_>
          <internalNodes>
            0 -1 146 -1.0277936780767050e-05</internalNodes>
          <leafValues>
            1.8437591195106506e-01 -1.1328642070293427e-01</leafValues></_>
        <_>
          <internalNodes>
            0 -1 107 -4.3871975503861904e-04</internalNodes>
          <leafValues>
            -2.9987135529518127e-01 8.0684579908847809e-02</leafValues></_>
        <_>
          <internalNodes>
            0 -1 104 8.0097131431102753e-03</internalNodes>
          <leafValues>
            -4.6459928154945374e-02 5.0198143720626831e-01</leafValues></_>
        <_>
          <internalNodes>
            0 -1 86 -1.5192490536719561e-05</internalNodes>
          <leafValues>
            1.7315869033336639e-01 -1.2148663401603699e-01</leafValues></_>
        <_>
          <internalNodes>
            0 -1 205 -2.2008307278156281e-02</internalNodes>
          <leafValues>
            -7.1698981523513794e-01 3.2506890594959259e-02</leafValues></_>
        <_>
          <internalNodes>
            0 -1 111 -2.0591586828231812e-02</internalNodes>
          <leafValues>
            3.3892360329627991e-01 -6.5892234444618225e-02</leafValues></_>
        <_>
          <internalNodes>
            0 -1 16 2.4205995723605156e-03</internalNodes>
          <leafValues>
            6.6667050123214722e-02 -3.4656706452369690e-01</leafValues></_>
        <_>
          <internalNodes>
            0 -1 109 -3.6587449721992016e-04</internalNodes>
          <leafValues>
            -2.1118594706058502e-01 9.4400100409984589e-02</leafValues></_>
        <_>
          <internalNodes>
            0 -1 71 -2.2882711142301559e-02</internalNodes>
          <leafValues>
            2.3838837444782257e-01 -1.0855355858802795e-01</leafValues></_>
        <_>
          <internalNodes>
            0 -1 156 -8.0898448824882507e-02</internalNodes>
          <leafValues>
            -6.6442310810089111e-01 3.4454762935638428e-02</leafValues></_>
        <_>
          <internalNodes>
            0 -1 182 -2.3471533786505461e-03</internalNodes>
          <leafValues>
            2.0567706227302551e-01 -9.9135495722293854e-02</leafValues></_>
        <_>
          <internalNodes>
            0 -1 18 1.0892175851040520e-05</internalNodes>
          <leafValues>
            -1.0992457717657089e-01 1.7537376284599304e-01</leafValues></_>
        <_>
          <internalNodes>
            0 -1 147 9.8600494675338268e-04</internalNodes>
          <leafValues>
            5.8214701712131500e-02 -3.5215014219284058e-01</leafValues></_>
        <_>
          <internalNodes>
            0 -1 24 7.8408746048808098e-03</internalNodes>
          <leafValues>
            -4.3307375162839890e-02 4.9426615238189697e-01</leafValues></_>
        <_>
          <internalNodes>
            0 -1 186 1.2228468433022499e-02</internalNodes>
          <leafValues>
            -3.3201176673173904e-02 5.7910937070846558e-01</leafValues></_>
        <_>
          <internalNodes>
            0 -1 178 8.2475197268649936e-04</internalNodes>
          <leafValues>
            -1.0445915907621384e-01 1.9315730035305023e-01</leafValues></_>
        <_>
          <internalNodes>
            0 -1 221 -1.2579015456140041e-03</internalNodes>
          <leafValues>
            -4.2132967710494995e-01 5.1815021783113480e-02</leafValues></_>
        <_>
          <internalNodes>
            0 -1 92 1.0277936780767050e-05</internalNodes>
          <leafValues>
            -1.1875285208225250e-01 1.8145324289798737e-01</leafValues></_>
        <_>
          <internalNodes>
            0 -1 42 -8.6057201027870178e-02</internalNodes>
          <leafValues>
            -4.1866451501846313e-01 4.6929333359003067e-02</leafValues></_>
        <_>
          <internalNodes>
            0 -1 70 2.2635923698544502e-02</internalNodes>
          <leafValues>
            -5.6095227599143982e-02 3.7666872143745422e-01</leafValues></_></weakClassifiers></_></stages>
  <features>
    <_>
      <rects>
        <_>
          0 0 2 2 -1.</_>
        <_>
          0 0 1 1 2.</_>
        <_>
          1 1 1 1 2.</_></rects>
      <tilted>0</tilted></_>
    <_>
      <rects>
        <_>
          0 0 2 2 -1.</_>
        <_>
          1 0 1 2 2.</_></rects>
      <tilted>0</tilted></_>
    <_>
      <rects>
        <_>
          0 0 2 4 -1.</_>
        <_>
          1 0 1 4 2.</_></rects>
      <tilted>0</tilted></_>
    <_>
      <rects>
        <_>
          0 0 2 5 -1.</_>
        <_>
          1 0 1 5 2.</_></rects>
      <tilted>0</tilted></_>
    <_>
      <rects>
        <_>
          0 0 8 6 -1.</_>
        <_>
          4 0 4 6 2.</_></rects>
      <tilted>0</tilted></_>
    <_>
      <rects>
        <_>
          0 0 12 24 -1.</_>
        <_>
          0 8 12 8 3.</_></rects>
      <tilted>0</tilted></_>
    <_>
      <rects>
        <_>
          0 0 24 9 -1.</_>
        <_>
          0 3 24 3 3.</_></rects>
      <tilted>0</tilted></_>
    <_>
      <rects>
        <_>
          0 0 24 12 -1.</_>
        <_>
          0 3 24 6 2.</_></rects>
      <tilted>0</tilted></_>
    <_>
      <rects>
        <_>
          0 1 4 3 -1.</_>
        <_>
          2 1 2 3 2.</_></rects>
      <tilted>0</tilted></_>
    <_>
      <rects>
        <_>
          0 1 10 16 -1.</_>
        <_>
          5 1 5 16 2.</_></rects>
      <tilted>0</tilted></_>
    <_>
      <rects>
        <_>
          0 2 2 3 -1.</_>
        <_>
          1 2 1 3 2.</_></rects>
      <tilted>0</tilted></_>
    <_>
      <rects>
        <_>
          0 4 15 14 -1.</_>
        <_>
          5 4 5 14 3.</_></rects>
      <tilted>0</tilted></_>
    <_>
      <rects>
        <_>
          0 5 24 19 -1.</_>
        <_>
          6 5 12 19 2.</_></rects>
      <tilted>0</tilted></_>
    <_>
      <rects>
        <_>
          0 8 20 16 -1.</_>
        <_>
          10 8 10 16 2.</_></rects>
      <tilted>0</tilted></_>
    <_>
      <rects>
        <_>
          0 9 19 12 -1.</_>
        <_>
          0 13 19 4 3.</_></rects>
      <tilted>0</tilted></_>
    <_>
      <rects>
        <_>
          0 12 4 12 -1.</_>
        <_>
          2 12 2 12 2.</_></rects>
      <tilted>0</tilted></_>
    <_>
      <rects>
        <_>
          0 16 2 6 -1.</_>
        <_>
          1 16 1 6 2.</_></rects>
      <tilted>0</tilted></_>
    <_>
      <rects>
        <_>
          0 18 8 6 -1.</_>
        <_>
          4 18 4 6 2.</_></rects>
      <tilted>0</tilted></_>
    <_>
      <rects>
        <_>
          0 19 2 3 -1.</_>
        <_>
          1 19 1 3 2.</_></rects>
      <tilted>0</tilted></_>
    <_>
      <rects>
        <_>
          0 22 8 1 -1.</_>
        <_>
          4 22 4 1 2.</_></rects>
      <tilted>0</tilted></_>
    <_>
      <rects>
        <_>
          1 0 9 12 -1.</_>
        <_>
          1 3 9 6 2.</_></rects>
      <tilted>0</tilted></_>
    <_>
      <rects>
        <_>
          1 1 8 16 -1.</_>
        <_>
          5 1 4 16 2.</_></rects>
      <tilted>0</tilted></_>
    <_>
      <rects>
        <_>
          1 2 21 22 -1.</_>
        <_>
          1 13 21 11 2.</_></rects>
      <tilted>0</tilted></_>
    <_>
      <rects>
        <_>
          1 3 22 18 -1.</_>
        <_>
          12 3 11 18 2.</_></rects>
      <tilted>0</tilted></_>
    <_>
      <rects>
        <_>
          1 8 6 3 -1.</_>
        <_>
          1 9 6 1 3.</_></rects>
      <tilted>0</tilted></_>
    <_>
      <rects>
        <_>
          1 8 12 1 -1.</_>
        <_>
          1 8 6 1 2.</_></rects>
      <tilted>1</tilted></_>
    <_>
      <rects>
        <_>
          1 9 10 8 -1.</_>
        <_>
          1 11 10 4 2.</_></rects>
      <tilted>0</tilted></_>
    <_>
      <rects>
        <_>
          1 10 15 5 -1.</_>
        <_>
          6 10 5 5 3.</_></rects>
      <tilted>0</tilted></_>
    <_>
      <rects>
        <_>
          1 10 7 4 -1.</_>
        <_>
          1 12 7 2 2.</_></rects>
      <tilted>0</tilted></_>
    <_>
      <rects>
        <_>
          1 16 4 2 -1.</_>
        <_>
          1 16 2 1 2.</_>
        <_>
          3 17 2 1 2.</_></rects>
      <tilted>0</tilted></_>
    <_>
      <rects>
        <_>
          2 0 6 3 -1.</_>
        <_>
          5 0 3 3 2.</_></rects>
      <tilted>0</tilted></_>
    <_>
      <rects>
        <_>
          2 1 2 6 -1.</_>
        <_>
          3 1 1 6 2.</_></rects>
      <tilted>0</tilted></_>
    <_>
      <rects>
        <_>
          2 1 4 1 -1.</_>
        <_>
          2 1 2 1 2.</_></rects>
      <tilted>1</tilted></_>
    <_>
      <rects>
        <_>
          2 3 2 1 -1.</_>
        <_>
          3 3 1 1 2.</_></rects>
      <tilted>0</tilted></_>
    <_>
      <rects>
        <_>
          2 6 15 12 -1.</_>
        <_>
          7 10 5 4 9.</_></rects>
      <tilted>0</tilted></_>
    <_>
      <rects>
        <_>
          2 7 2 3 -1.</_>
        <_>
          2 8 2 1 3.</_></rects>
      <tilted>0</tilted></_>
    <_>
      <rects>
        <_>
          2 8 22 12 -1.</_>
        <_>
          13 8 11 12 2.</_></rects>
      <tilted>0</tilted></_>
    <_>
      <rects>
        <_>
          2 11 10 12 -1.</_>
        <_>
          2 14 10 6 2.</_></rects>
      <tilted>0</tilted></_>
    <_>
      <rects>
        <_>
          2 20 15 4 -1.</_>
        <_>
          7 20 5 4 3.</_></rects>
      <tilted>0</tilted></_>
    <_>
      <rects>
        <_>
          2 21 14 3 -1.</_>
        <_>
          9 21 7 3 2.</_></rects>
      <tilted>0</tilted></_>
    <_>
      <rects>
        <_>
          3 0 2 5 -1.</_>
        <_>
          4 0 1 5 2.</_></rects>
      <tilted>0</tilted></_>
    <_>
      <rects>
        <_>
          3 1 8 2 -1.</_>
        <_>
          7 1 4 2 2.</_></rects>
      <tilted>0</tilted></_>
    <_>
      <rects>
        <_>
          3 1 10 18 -1.</_>
        <_>
          3 1 5 9 2.</_>
        <_>
          8 10 5 9 2.</_></rects>
      <tilted>0</tilted></_>
    <_>
      <rects>
        <_>
          3 2 2 2 -1.</_>
        <_>
          3 2 1 1 2.</_>
        <_>
          4 3 1 1 2.</_></rects>
      <tilted>0</tilted></_>
    <_>
      <rects>
        <_>
          3 2 4 2 -1.</_>
        <_>
          4 2 2 2 2.</_></rects>
      <tilted>0</tilted></_>
    <_>
      <rects>
        <_>
          3 3 7 12 -1.</_>
        <_>
          3 7 7 4 3.</_></rects>
      <tilted>0</tilted></_>
    <_>
      <rects>
        <_>
          3 6 15 2 -1.</_>
        <_>
          3 6 15 1 2.</_></rects>
      <tilted>1</tilted></_>
    <_>
      <rects>
        <_>
          3 9 9 4 -1.</_>
        <_>
          3 10 9 2 2.</_></rects>
      <tilted>0</tilted></_>
    <_>
      <rects>
        <_>
          3 11 5 3 -1.</_>
        <_>
          3 12 5 1 3.</_></rects>
      <tilted>0</tilted></_>
    <_>
      <rects>
        <_>
          3 17 2 2 -1.</_>
        <_>
          3 17 1 1 2.</_>
        <_>
          4 18 1 1 2.</_></rects>
      <tilted>0</tilted></_>
    <_>
      <rects>
        <_>
          3 17 5 2 -1.</_>
        <_>
          3 17 5 1 2.</_></rects>
      <tilted>1</tilted></_>
    <_>
      <rects>
        <_>
          4 0 4 1 -1.</_>
        <_>
          6 0 2 1 2.</_></rects>
      <tilted>0</tilted></_>
    <_>
      <rects>
        <_>
          4 0 7 18 -1.</_>
        <_>
          4 6 7 6 3.</_></rects>
      <tilted>0</tilted></_>
    <_>
      <rects>
        <_>
          4 0 20 19 -1.</_>
        <_>
          14 0 10 19 2.</_></rects>
      <tilted>0</tilted></_>
    <_>
      <rects>
        <_>
          4 2 6 2 -1.</_>
        <_>
          4 2 3 1 2.</_>
        <_>
          7 3 3 1 2.</_></rects>
      <tilted>0</tilted></_>
    <_>
      <rects>
        <_>
          4 3 2 1 -1.</_>
        <_>
          5 3 1 1 2.</_></rects>
      <tilted>0</tilted></_>
    <_>
      <rects>
        <_>
          4 3 3 1 -1.</_>
        <_>
          5 3 1 1 3.</_></rects>
      <tilted>0</tilted></_>
    <_>
      <rects>
        <_>
          4 8 5 4 -1.</_>
        <_>
          4 10 5 2 2.</_></rects>
      <tilted>0</tilted></_>
    <_>
      <rects>
        <_>
          4 8 9 9 -1.</_>
        <_>
          4 11 9 3 3.</_></rects>
      <tilted>0</tilted></_>
    <_>
      <rects>
        <_>
          4 13 8 4 -1.</_>
        <_>
          4 15 8 2 2.</_></rects>
      <tilted>0</tilted></_>
    <_>
      <rects>
        <_>
          4 20 6 3 -1.</_>
        <_>
          7 20 3 3 2.</_></rects>
      <tilted>0</tilted></_>
    <_>
      <rects>
        <_>
          4 21 4 2 -1.</_>
        <_>
          6 21 2 2 2.</_></rects>
      <tilted>0</tilted></_>
    <_>
      <rects>
        <_>
          5 0 6 15 -1.</_>
        <_>
          5 5 6 5 3.</_></rects>
      <tilted>0</tilted></_>
    <_>
      <rects>
        <_>
          5 1 18 6 -1.</_>
        <_>
          5 4 18 3 2.</_></rects>
      <tilted>0</tilted></_>
    <_>
      <rects>
        <_>
          5 2 16 9 -1.</_>
        <_>
          5 5 16 3 3.</_></rects>
      <tilted>0</tilted></_>
    <_>
      <rects>
        <_>
          5 7 5 9 -1.</_>
        <_>
          5 10 5 3 3.</_></rects>
      <tilted>0</tilted></_>
    <_>
      <rects>
        <_>
          5 9 3 4 -1.</_>
        <_>
          5 10 3 2 2.</_></rects>
      <tilted>0</tilted></_>
    <_>
      <rects>
        <_>
          5 10 16 6 -1.</_>
        <_>
          13 10 8 6 2.</_></rects>
      <tilted>0</tilted></_>
    <_>
      <rects>
        <_>
          5 22 6 2 -1.</_>
        <_>
          8 22 3 2 2.</_></rects>
      <tilted>0</tilted></_>
    <_>
      <rects>
        <_>
          6 0 4 3 -1.</_>
        <_>
          8 0 2 3 2.</_></rects>
      <tilted>0</tilted></_>
    <_>
      <rects>
        <_>
          6 0 6 8 -1.</_>
        <_>
          8 0 2 8 3.</_></rects>
      <tilted>0</tilted></_>
    <_>
      <rects>
        <_>
          6 1 8 16 -1.</_>
        <_>
          8 1 4 16 2.</_></rects>
      <tilted>0</tilted></_>
    <_>
      <rects>
        <_>
          6 2 3 3 -1.</_>
        <_>
          6 3 3 1 3.</_></rects>
      <tilted>0</tilted></_>
    <_>
      <rects>
        <_>
          6 3 9 4 -1.</_>
        <_>
          9 6 3 4 3.</_></rects>
      <tilted>1</tilted></_>
    <_>
      <rects>
        <_>
          6 5 6 14 -1.</_>
        <_>
          8 5 2 14 3.</_></rects>
      <tilted>0</tilted></_>
    <_>
      <rects>
        <_>
          6 7 12 9 -1.</_>
        <_>
          10 10 4 3 9.</_></rects>
      <tilted>0</tilted></_>
    <_>
      <rects>
        <_>
          6 10 6 12 -1.</_>
        <_>
          8 10 2 12 3.</_></rects>
      <tilted>0</tilted></_>
    <_>
      <rects>
        <_>
          6 13 2 1 -1.</_>
        <_>
          6 13 1 1 2.</_></rects>
      <tilted>1</tilted></_>
    <_>
      <rects>
        <_>
          6 16 14 7 -1.</_>
        <_>
          13 16 7 7 2.</_></rects>
      <tilted>0</tilted></_>
    <_>
      <rects>
        <_>
          7 0 3 1 -1.</_>
        <_>
          8 0 1 1 3.</_></rects>
      <tilted>0</tilted></_>
    <_>
      <rects>
        <_>
          7 0 2 5 -1.</_>
        <_>
          8 0 1 5 2.</_></rects>
      <tilted>0</tilted></_>
    <_>
      <rects>
        <_>
          7 0 7 12 -1.</_>
        <_>
          7 4 7 4 3.</_></rects>
      <tilted>0</tilted></_>
    <_>
      <rects>
        <_>
          7 1 6 14 -1.</_>
        <_>
          9 1 2 14 3.</_></rects>
      <tilted>0</tilted></_>
    <_>
      <rects>
        <_>
          7 1 9 12 -1.</_>
        <_>
          7 7 9 6 2.</_></rects>
      <tilted>0</tilted></_>
    <_>
      <rects>
        <_>
          7 2 6 12 -1.</_>
        <_>
          9 6 2 4 9.</_></rects>
      <tilted>0</tilted></_>
    <_>
      <rects>
        <_>
          7 4 2 14 -1.</_>
        <_>
          8 4 1 14 2.</_></rects>
      <tilted>0</tilted></_>
    <_>
      <rects>
        <_>
          7 11 2 3 -1.</_>
        <_>
          7 11 1 3 2.</_></rects>
      <tilted>1</tilted></_>
    <_>
      <rects>
        <_>
          7 11 3 3 -1.</_>
        <_>
          8 12 1 3 3.</_></rects>
      <tilted>1</tilted></_>
    <_>
      <rects>
        <_>
          7 11 4 12 -1.</_>
        <_>
          7 14 4 6 2.</_></rects>
      <tilted>0</tilted></_>
    <_>
      <rects>
        <_>
          8 0 2 1 -1.</_>
        <_>
          9 0 1 1 2.</_></rects>
      <tilted>0</tilted></_>
    <_>
      <rects>
        <_>
          8 0 6 24 -1.</_>
        <_>
          8 12 6 12 2.</_></rects>
      <tilted>0</tilted></_>
    <_>
      <rects>
        <_>
          8 0 16 5 -1.</_>
        <_>
          16 0 8 5 2.</_></rects>
      <tilted>0</tilted></_>
    <_>
      <rects>
        <_>
          8 5 1 2 -1.</_>
        <_>
          8 6 1 1 2.</_></rects>
      <tilted>0</tilted></_>
    <_>
      <rects>
        <_>
          8 5 7 3 -1.</_>
        <_>
          7 6 7 1 3.</_></rects>
      <tilted>1</tilted></_>
    <_>
      <rects>
        <_>
          8 6 4 8 -1.</_>
        <_>
          8 6 2 4 2.</_>
        <_>
          10 10 2 4 2.</_></rects>
      <tilted>0</tilted></_>
    <_>
      <rects>
        <_>
          8 7 1 3 -1.</_>
        <_>
          8 8 1 1 3.</_></rects>
      <tilted>0</tilted></_>
    <_>
      <rects>
        <_>
          8 7 9 9 -1.</_>
        <_>
          11 10 3 3 9.</_></rects>
      <tilted>0</tilted></_>
    <_>
      <rects>
        <_>
          8 10 4 1 -1.</_>
        <_>
          9 10 2 1 2.</_></rects>
      <tilted>0</tilted></_>
    <_>
      <rects>
        <_>
          8 10 3 4 -1.</_>
        <_>
          8 12 3 2 2.</_></rects>
      <tilted>0</tilted></_>
    <_>
      <rects>
        <_>
          8 10 6 4 -1.</_>
        <_>
          8 10 3 2 2.</_>
        <_>
          11 12 3 2 2.</_></rects>
      <tilted>0</tilted></_>
    <_>
      <rects>
        <_>
          8 11 9 6 -1.</_>
        <_>
          8 13 9 2 3.</_></rects>
      <tilted>0</tilted></_>
    <_>
      <rects>
        <_>
          8 12 3 6 -1.</_>
        <_>
          9 14 1 2 9.</_></rects>
      <tilted>0</tilted></_>
    <_>
      <rects>
        <_>
          8 12 6 1 -1.</_>
        <_>
          10 12 2 1 3.</_></rects>
      <tilted>0</tilted></_>
    <_>
      <rects>
        <_>
          8 13 3 7 -1.</_>
        <_>
          9 13 1 7 3.</_></rects>
      <tilted>0</tilted></_>
    <_>
      <rects>
        <_>
          8 14 4 1 -1.</_>
        <_>
          9 15 2 1 2.</_></rects>
      <tilted>1</tilted></_>
    <_>
      <rects>
        <_>
          8 14 10 9 -1.</_>
        <_>
          8 17 10 3 3.</_></rects>
      <tilted>0</tilted></_>
    <_>
      <rects>
        <_>
          8 18 1 4 -1.</_>
        <_>
          8 18 1 2 2.</_></rects>
      <tilted>1</tilted></_>
    <_>
      <rects>
        <_>
          8 23 2 1 -1.</_>
        <_>
          9 23 1 1 2.</_></rects>
      <tilted>0</tilted></_>
    <_>
      <rects>
        <_>
          8 23 12 1 -1.</_>
        <_>
          11 23 6 1 2.</_></rects>
      <tilted>0</tilted></_>
    <_>
      <rects>
        <_>
          9 0 2 3 -1.</_>
        <_>
          10 0 1 3 2.</_></rects>
      <tilted>0</tilted></_>
    <_>
      <rects>
        <_>
          9 0 8 1 -1.</_>
        <_>
          13 0 4 1 2.</_></rects>
      <tilted>0</tilted></_>
    <_>
      <rects>
        <_>
          9 0 15 6 -1.</_>
        <_>
          9 2 15 2 3.</_></rects>
      <tilted>0</tilted></_>
    <_>
      <rects>
        <_>
          9 2 6 2 -1.</_>
        <_>
          12 2 3 2 2.</_></rects>
      <tilted>0</tilted></_>
    <_>
      <rects>
        <_>
          9 3 6 7 -1.</_>
        <_>
          11 5 2 7 3.</_></rects>
      <tilted>1</tilted></_>
    <_>
      <rects>
        <_>
          9 4 4 20 -1.</_>
        <_>
          9 14 4 10 2.</_></rects>
      <tilted>0</tilted></_>
    <_>
      <rects>
        <_>
          9 6 2 12 -1.</_>
        <_>
          10 6 1 12 2.</_></rects>
      <tilted>0</tilted></_>
    <_>
      <rects>
        <_>
          9 7 8 1 -1.</_>
        <_>
          11 9 4 1 2.</_></rects>
      <tilted>1</tilted></_>
    <_>
      <rects>
        <_>
          9 7 6 9 -1.</_>
        <_>
          6 10 6 3 3.</_></rects>
      <tilted>1</tilted></_>
    <_>
      <rects>
        <_>
          9 8 3 8 -1.</_>
        <_>
          10 8 1 8 3.</_></rects>
      <tilted>0</tilted></_>
    <_>
      <rects>
        <_>
          9 8 4 6 -1.</_>
        <_>
          9 8 2 3 2.</_>
        <_>
          11 11 2 3 2.</_></rects>
      <tilted>0</tilted></_>
    <_>
      <rects>
        <_>
          9 9 3 10 -1.</_>
        <_>
          10 9 1 10 3.</_></rects>
      <tilted>0</tilted></_>
    <_>
      <rects>
        <_>
          9 9 6 3 -1.</_>
        <_>
          11 10 2 1 9.</_></rects>
      <tilted>0</tilted></_>
    <_>
      <rects>
        <_>
          9 10 3 6 -1.</_>
        <_>
          10 10 1 6 3.</_></rects>
      <tilted>0</tilted></_>
    <_>
      <rects>
        <_>
          9 11 4 3 -1.</_>
        <_>
          9 12 4 1 3.</_></rects>
      <tilted>0</tilted></_>
    <_>
      <rects>
        <_>
          9 12 3 1 -1.</_>
        <_>
          10 13 1 1 3.</_></rects>
      <tilted>1</tilted></_>
    <_>
      <rects>
        <_>
          9 12 2 8 -1.</_>
        <_>
          9 12 1 4 2.</_>
        <_>
          10 16 1 4 2.</_></rects>
      <tilted>0</tilted></_>
    <_>
      <rects>
        <_>
          9 15 2 1 -1.</_>
        <_>
          9 15 1 1 2.</_></rects>
      <tilted>1</tilted></_>
    <_>
      <rects>
        <_>
          9 16 3 5 -1.</_>
        <_>
          10 16 1 5 3.</_></rects>
      <tilted>0</tilted></_>
    <_>
      <rects>
        <_>
          10 0 3 1 -1.</_>
        <_>
          11 0 1 1 3.</_></rects>
      <tilted>0</tilted></_>
    <_>
      <rects>
        <_>
          10 0 3 12 -1.</_>
        <_>
          11 4 1 4 9.</_></rects>
      <tilted>0</tilted></_>
    <_>
      <rects>
        <_>
          10 0 2 8 -1.</_>
        <_>
          10 4 2 4 2.</_></rects>
      <tilted>0</tilted></_>
    <_>
      <rects>
        <_>
          10 0 6 4 -1.</_>
        <_>
          10 2 6 2 2.</_></rects>
      <tilted>0</tilted></_>
    <_>
      <rects>
        <_>
          10 0 11 10 -1.</_>
        <_>
          10 0 11 5 2.</_></rects>
      <tilted>1</tilted></_>
    <_>
      <rects>
        <_>
          10 1 2 2 -1.</_>
        <_>
          10 1 1 2 2.</_></rects>
      <tilted>1</tilted></_>
    <_>
      <rects>
        <_>
          10 5 3 19 -1.</_>
        <_>
          11 5 1 19 3.</_></rects>
      <tilted>0</tilted></_>
    <_>
      <rects>
        <_>
          10 5 3 3 -1.</_>
        <_>
          9 6 3 1 3.</_></rects>
      <tilted>1</tilted></_>
    <_>
      <rects>
        <_>
          10 8 6 6 -1.</_>
        <_>
          12 10 2 2 9.</_></rects>
      <tilted>0</tilted></_>
    <_>
      <rects>
        <_>
          10 9 1 2 -1.</_>
        <_>
          10 10 1 1 2.</_></rects>
      <tilted>0</tilted></_>
    <_>
      <rects>
        <_>
          10 9 4 2 -1.</_>
        <_>
          11 9 2 2 2.</_></rects>
      <tilted>0</tilted></_>
    <_>
      <rects>
        <_>
          10 9 4 9 -1.</_>
        <_>
          10 12 4 3 3.</_></rects>
      <tilted>0</tilted></_>
    <_>
      <rects>
        <_>
          10 10 3 3 -1.</_>
        <_>
          11 11 1 1 9.</_></rects>
      <tilted>0</tilted></_>
    <_>
      <rects>
        <_>
          10 10 2 4 -1.</_>
        <_>
          10 10 1 2 2.</_>
        <_>
          11 12 1 2 2.</_></rects>
      <tilted>0</tilted></_>
    <_>
      <rects>
        <_>
          10 11 3 4 -1.</_>
        <_>
          10 12 3 2 2.</_></rects>
      <tilted>0</tilted></_>
    <_>
      <rects>
        <_>
          10 12 2 1 -1.</_>
        <_>
          11 12 1 1 2.</_></rects>
      <tilted>0</tilted></_>
    <_>
      <rects>
        <_>
          10 12 4 1 -1.</_>
        <_>
          11 12 2 1 2.</_></rects>
      <tilted>0</tilted></_>
    <_>
      <rects>
        <_>
          10 12 3 3 -1.</_>
        <_>
          11 13 1 1 9.</_></rects>
      <tilted>0</tilted></_>
    <_>
      <rects>
        <_>
          10 21 1 2 -1.</_>
        <_>
          10 22 1 1 2.</_></rects>
      <tilted>0</tilted></_>
    <_>
      <rects>
        <_>
          11 0 3 1 -1.</_>
        <_>
          12 0 1 1 3.</_></rects>
      <tilted>0</tilted></_>
    <_>
      <rects>
        <_>
          11 0 12 1 -1.</_>
        <_>
          14 0 6 1 2.</_></rects>
      <tilted>0</tilted></_>
    <_>
      <rects>
        <_>
          11 1 2 17 -1.</_>
        <_>
          12 1 1 17 2.</_></rects>
      <tilted>0</tilted></_>
    <_>
      <rects>
        <_>
          11 5 1 2 -1.</_>
        <_>
          11 6 1 1 2.</_></rects>
      <tilted>0</tilted></_>
    <_>
      <rects>
        <_>
          11 5 2 3 -1.</_>
        <_>
          10 6 2 1 3.</_></rects>
      <tilted>1</tilted></_>
    <_>
      <rects>
        <_>
          11 6 3 4 -1.</_>
        <_>
          12 6 1 4 3.</_></rects>
      <tilted>0</tilted></_>
    <_>
      <rects>
        <_>
          11 7 2 8 -1.</_>
        <_>
          11 9 2 4 2.</_></rects>
      <tilted>0</tilted></_>
    <_>
      <rects>
        <_>
          11 8 4 7 -1.</_>
        <_>
          12 9 2 7 2.</_></rects>
      <tilted>1</tilted></_>
    <_>
      <rects>
        <_>
          11 8 2 8 -1.</_>
        <_>
          11 10 2 4 2.</_></rects>
      <tilted>0</tilted></_>
    <_>
      <rects>
        <_>
          11 8 8 3 -1.</_>
        <_>
          11 8 4 3 2.</_></rects>
      <tilted>1</tilted></_>
    <_>
      <rects>
        <_>
          11 9 4 1 -1.</_>
        <_>
          12 10 2 1 2.</_></rects>
      <tilted>1</tilted></_>
    <_>
      <rects>
        <_>
          11 9 4 4 -1.</_>
        <_>
          11 9 2 2 2.</_>
        <_>
          13 11 2 2 2.</_></rects>
      <tilted>0</tilted></_>
    <_>
      <rects>
        <_>
          11 9 6 6 -1.</_>
        <_>
          13 11 2 2 9.</_></rects>
      <tilted>0</tilted></_>
    <_>
      <rects>
        <_>
          11 9 2 9 -1.</_>
        <_>
          11 12 2 3 3.</_></rects>
      <tilted>0</tilted></_>
    <_>
      <rects>
        <_>
          11 10 4 2 -1.</_>
        <_>
          11 10 2 1 2.</_>
        <_>
          13 11 2 1 2.</_></rects>
      <tilted>0</tilted></_>
    <_>
      <rects>
        <_>
          11 10 2 6 -1.</_>
        <_>
          11 12 2 2 3.</_></rects>
      <tilted>0</tilted></_>
    <_>
      <rects>
        <_>
          11 10 2 8 -1.</_>
        <_>
          11 12 2 4 2.</_></rects>
      <tilted>0</tilted></_>
    <_>
      <rects>
        <_>
          11 10 2 14 -1.</_>
        <_>
          11 17 2 7 2.</_></rects>
      <tilted>0</tilted></_>
    <_>
      <rects>
        <_>
          11 10 9 3 -1.</_>
        <_>
          14 11 3 1 9.</_></rects>
      <tilted>0</tilted></_>
    <_>
      <rects>
        <_>
          11 11 2 2 -1.</_>
        <_>
          11 11 1 1 2.</_>
        <_>
          12 12 1 1 2.</_></rects>
      <tilted>0</tilted></_>
    <_>
      <rects>
        <_>
          11 11 3 6 -1.</_>
        <_>
          12 13 1 2 9.</_></rects>
      <tilted>0</tilted></_>
    <_>
      <rects>
        <_>
          11 12 3 3 -1.</_>
        <_>
          12 13 1 1 9.</_></rects>
      <tilted>0</tilted></_>
    <_>
      <rects>
        <_>
          11 21 2 1 -1.</_>
        <_>
          12 21 1 1 2.</_></rects>
      <tilted>0</tilted></_>
    <_>
      <rects>
        <_>
          12 0 2 1 -1.</_>
        <_>
          13 0 1 1 2.</_></rects>
      <tilted>0</tilted></_>
    <_>
      <rects>
        <_>
          12 0 4 1 -1.</_>
        <_>
          14 0 2 1 2.</_></rects>
      <tilted>0</tilted></_>
    <_>
      <rects>
        <_>
          12 0 6 12 -1.</_>
        <_>
          14 2 2 12 3.</_></rects>
      <tilted>1</tilted></_>
    <_>
      <rects>
        <_>
          12 3 2 3 -1.</_>
        <_>
          11 4 2 1 3.</_></rects>
      <tilted>1</tilted></_>
    <_>
      <rects>
        <_>
          12 5 2 16 -1.</_>
        <_>
          12 9 2 8 2.</_></rects>
      <tilted>0</tilted></_>
    <_>
      <rects>
        <_>
          12 7 3 9 -1.</_>
        <_>
          13 10 1 3 9.</_></rects>
      <tilted>0</tilted></_>
    <_>
      <rects>
        <_>
          12 8 1 9 -1.</_>
        <_>
          12 11 1 3 3.</_></rects>
      <tilted>0</tilted></_>
    <_>
      <rects>
        <_>
          12 8 2 8 -1.</_>
        <_>
          12 10 2 4 2.</_></rects>
      <tilted>0</tilted></_>
    <_>
      <rects>
        <_>
          12 9 2 4 -1.</_>
        <_>
          12 9 1 2 2.</_>
        <_>
          13 11 1 2 2.</_></rects>
      <tilted>0</tilted></_>
    <_>
      <rects>
        <_>
          12 9 2 9 -1.</_>
        <_>
          12 12 2 3 3.</_></rects>
      <tilted>0</tilted></_>
    <_>
      <rects>
        <_>
          12 10 2 1 -1.</_>
        <_>
          13 10 1 1 2.</_></rects>
      <tilted>0</tilted></_>
    <_>
      <rects>
        <_>
          12 10 1 4 -1.</_>
        <_>
          12 11 1 2 2.</_></rects>
      <tilted>0</tilted></_>
    <_>
      <rects>
        <_>
          12 10 3 3 -1.</_>
        <_>
          13 11 1 1 9.</_></rects>
      <tilted>0</tilted></_>
    <_>
      <rects>
        <_>
          12 10 2 4 -1.</_>
        <_>
          12 12 2 2 2.</_></rects>
      <tilted>0</tilted></_>
    <_>
      <rects>
        <_>
          12 10 5 8 -1.</_>
        <_>
          10 12 5 4 2.</_></rects>
      <tilted>1</tilted></_>
    <_>
      <rects>
        <_>
          12 11 1 3 -1.</_>
        <_>
          11 12 1 1 3.</_></rects>
      <tilted>1</tilted></_>
    <_>
      <rects>
        <_>
          12 11 4 4 -1.</_>
        <_>
          12 11 2 2 2.</_>
        <_>
          14 13 2 2 2.</_></rects>
      <tilted>0</tilted></_>
    <_>
      <rects>
        <_>
          12 11 2 12 -1.</_>
        <_>
          12 14 2 6 2.</_></rects>
      <tilted>0</tilted></_>
    <_>
      <rects>
        <_>
          12 12 3 3 -1.</_>
        <_>
          13 13 1 1 9.</_></rects>
      <tilted>0</tilted></_>
    <_>
      <rects>
        <_>
          12 13 1 2 -1.</_>
        <_>
          12 14 1 1 2.</_></rects>
      <tilted>0</tilted></_>
    <_>
      <rects>
        <_>
          12 15 1 2 -1.</_>
        <_>
          12 16 1 1 2.</_></rects>
      <tilted>0</tilted></_>
    <_>
      <rects>
        <_>
          12 17 12 6 -1.</_>
        <_>
          18 17 6 6 2.</_></rects>
      <tilted>0</tilted></_>
    <_>
      <rects>
        <_>
          13 0 1 10 -1.</_>
        <_>
          13 5 1 5 2.</_></rects>
      <tilted>0</tilted></_>
    <_>
      <rects>
        <_>
          13 0 3 11 -1.</_>
        <_>
          14 1 1 11 3.</_></rects>
      <tilted>1</tilted></_>
    <_>
      <rects>
        <_>
          13 2 6 10 -1.</_>
        <_>
          13 2 6 5 2.</_></rects>
      <tilted>1</tilted></_>
    <_>
      <rects>
        <_>
          13 8 2 6 -1.</_>
        <_>
          13 10 2 2 3.</_></rects>
      <tilted>0</tilted></_>
    <_>
      <rects>
        <_>
          13 11 2 1 -1.</_>
        <_>
          14 11 1 1 2.</_></rects>
      <tilted>0</tilted></_>
    <_>
      <rects>
        <_>
          13 11 1 4 -1.</_>
        <_>
          13 12 1 2 2.</_></rects>
      <tilted>0</tilted></_>
    <_>
      <rects>
        <_>
          13 11 3 12 -1.</_>
        <_>
          14 15 1 4 9.</_></rects>
      <tilted>0</tilted></_>
    <_>
      <rects>
        <_>
          14 0 2 2 -1.</_>
        <_>
          15 0 1 2 2.</_></rects>
      <tilted>0</tilted></_>
    <_>
      <rects>
        <_>
          14 0 10 5 -1.</_>
        <_>
          19 0 5 5 2.</_></rects>
      <tilted>0</tilted></_>
    <_>
      <rects>
        <_>
          14 0 7 12 -1.</_>
        <_>
          14 3 7 6 2.</_></rects>
      <tilted>0</tilted></_>
    <_>
      <rects>
        <_>
          14 11 1 4 -1.</_>
        <_>
          13 12 1 2 2.</_></rects>
      <tilted>1</tilted></_>
    <_>
      <rects>
        <_>
          14 12 1 3 -1.</_>
        <_>
          13 13 1 1 3.</_></rects>
      <tilted>1</tilted></_>
    <_>
      <rects>
        <_>
          14 21 2 3 -1.</_>
        <_>
          15 21 1 3 2.</_></rects>
      <tilted>0</tilted></_>
    <_>
      <rects>
        <_>
          15 2 2 11 -1.</_>
        <_>
          15 2 1 11 2.</_></rects>
      <tilted>1</tilted></_>
    <_>
      <rects>
        <_>
          15 2 4 2 -1.</_>
        <_>
          17 2 2 2 2.</_></rects>
      <tilted>0</tilted></_>
    <_>
      <rects>
        <_>
          15 11 1 3 -1.</_>
        <_>
          14 12 1 1 3.</_></rects>
      <tilted>1</tilted></_>
    <_>
      <rects>
        <_>
          15 11 5 8 -1.</_>
        <_>
          15 11 5 4 2.</_></rects>
      <tilted>1</tilted></_>
    <_>
      <rects>
        <_>
          16 1 7 6 -1.</_>
        <_>
          16 1 7 3 2.</_></rects>
      <tilted>1</tilted></_>
    <_>
      <rects>
        <_>
          16 7 6 4 -1.</_>
        <_>
          19 7 3 4 2.</_></rects>
      <tilted>0</tilted></_>
    <_>
      <rects>
        <_>
          16 8 8 8 -1.</_>
        <_>
          20 8 4 8 2.</_></rects>
      <tilted>0</tilted></_>
    <_>
      <rects>
        <_>
          16 9 1 4 -1.</_>
        <_>
          15 10 1 2 2.</_></rects>
      <tilted>1</tilted></_>
    <_>
      <rects>
        <_>
          16 21 2 1 -1.</_>
        <_>
          16 21 1 1 2.</_></rects>
      <tilted>1</tilted></_>
    <_>
      <rects>
        <_>
          16 22 4 1 -1.</_>
        <_>
          18 22 2 1 2.</_></rects>
      <tilted>0</tilted></_>
    <_>
      <rects>
        <_>
          17 2 2 2 -1.</_>
        <_>
          17 2 1 1 2.</_>
        <_>
          18 3 1 1 2.</_></rects>
      <tilted>0</tilted></_>
    <_>
      <rects>
        <_>
          17 3 4 2 -1.</_>
        <_>
          17 3 2 1 2.</_>
        <_>
          19 4 2 1 2.</_></rects>
      <tilted>0</tilted></_>
    <_>
      <rects>
        <_>
          17 9 1 4 -1.</_>
        <_>
          16 10 1 2 2.</_></rects>
      <tilted>1</tilted></_>
    <_>
      <rects>
        <_>
          17 15 2 8 -1.</_>
        <_>
          18 15 1 8 2.</_></rects>
      <tilted>0</tilted></_>
    <_>
      <rects>
        <_>
          18 0 5 22 -1.</_>
        <_>
          18 11 5 11 2.</_></rects>
      <tilted>0</tilted></_>
    <_>
      <rects>
        <_>
          18 1 5 18 -1.</_>
        <_>
          18 1 5 9 2.</_></rects>
      <tilted>1</tilted></_>
    <_>
      <rects>
        <_>
          18 2 1 3 -1.</_>
        <_>
          18 3 1 1 3.</_></rects>
      <tilted>0</tilted></_>
    <_>
      <rects>
        <_>
          19 16 2 8 -1.</_>
        <_>
          20 16 1 8 2.</_></rects>
      <tilted>0</tilted></_>
    <_>
      <rects>
        <_>
          19 20 2 4 -1.</_>
        <_>
          20 20 1 4 2.</_></rects>
      <tilted>0</tilted></_>
    <_>
      <rects>
        <_>
          20 0 2 2 -1.</_>
        <_>
          21 0 1 2 2.</_></rects>
      <tilted>0</tilted></_>
    <_>
      <rects>
        <_>
          20 0 2 20 -1.</_>
        <_>
          20 0 2 10 2.</_></rects>
      <tilted>1</tilted></_>
    <_>
      <rects>
        <_>
          20 6 4 18 -1.</_>
        <_>
          22 6 2 18 2.</_></rects>
      <tilted>0</tilted></_>
    <_>
      <rects>
        <_>
          21 1 2 14 -1.</_>
        <_>
          22 1 1 14 2.</_></rects>
      <tilted>0</tilted></_>
    <_>
      <rects>
        <_>
          22 0 2 1 -1.</_>
        <_>
          23 0 1 1 2.</_></rects>
      <tilted>0</tilted></_>
    <_>
      <rects>
        <_>
          22 22 2 2 -1.</_>
        <_>
          22 22 1 1 2.</_>
        <_>
          23 23 1 1 2.</_></rects>
      <tilted>0</tilted></_></features></cascade>
</opencv_storage>
