<?xml version="1.0"?>
<opencv_storage>
<cascade>
  <stageType>BOOST</stageType>
  <featureType>HAAR</featureType>
  <height>48</height>
  <width>48</width>
  <stageParams>
    <boostType>GAB</boostType>
    <minHitRate>8.9999997615814209e-01</minHitRate>
    <maxFalseAlarm>1.0000000149011612e-01</maxFalseAlarm>
    <weightTrimRate>9.4999999999999996e-01</weightTrimRate>
    <maxDepth>1</maxDepth>
    <maxWeakCount>100</maxWeakCount></stageParams>
  <featureParams>
    <maxCatCount>0</maxCatCount>
    <featSize>1</featSize>
    <mode>BASIC</mode></featureParams>
  <stageNum>9</stageNum>
  <stages>
    <!-- stage 0 -->
    <_>
      <maxWeakCount>7</maxWeakCount>
      <stageThreshold>6.1143273115158081e-01</stageThreshold>
      <weakClassifiers>
        <_>
          <internalNodes>
            0 -1 48 2.1719150245189667e-03</internalNodes>
          <leafValues>
            -2.1052632480859756e-02 9.4545453786849976e-01</leafValues></_>
        <_>
          <internalNodes>
            0 -1 17 5.1662316545844078e-03</internalNodes>
          <leafValues>
            -1.8590937554836273e-01 7.4419677257537842e-01</leafValues></_>
        <_>
          <internalNodes>
            0 -1 50 -3.4397817216813564e-03</internalNodes>
          <leafValues>
            8.3523863554000854e-01 -1.8266320228576660e-01</leafValues></_>
        <_>
          <internalNodes>
            0 -1 14 8.6783729493618011e-03</internalNodes>
          <leafValues>
            -3.1376767158508301e-01 7.0628333091735840e-01</leafValues></_>
        <_>
          <internalNodes>
            0 -1 68 -1.3993818720337003e-04</internalNodes>
          <leafValues>
            -5.9668171405792236e-01 4.0785926580429077e-01</leafValues></_>
        <_>
          <internalNodes>
            0 -1 30 -1.4665251364931464e-03</internalNodes>
          <leafValues>
            7.2213983535766602e-01 -2.7180075645446777e-01</leafValues></_>
        <_>
          <internalNodes>
            0 -1 20 -6.7972019314765930e-04</internalNodes>
          <leafValues>
            -7.9504156112670898e-01 3.0257534980773926e-01</leafValues></_></weakClassifiers></_>
    <!-- stage 1 -->
    <_>
      <maxWeakCount>6</maxWeakCount>
      <stageThreshold>6.5138936042785645e-01</stageThreshold>
      <weakClassifiers>
        <_>
          <internalNodes>
            0 -1 23 4.4050449505448341e-03</internalNodes>
          <leafValues>
            -2.0000000298023224e-01 7.6969695091247559e-01</leafValues></_>
        <_>
          <internalNodes>
            0 -1 56 6.2704260926693678e-05</internalNodes>
          <leafValues>
            -2.7117311954498291e-01 7.0852130651473999e-01</leafValues></_>
        <_>
          <internalNodes>
            0 -1 8 -5.7935332879424095e-03</internalNodes>
          <leafValues>
            8.5858637094497681e-01 -2.0153626799583435e-01</leafValues></_>
        <_>
          <internalNodes>
            0 -1 43 -1.8819222168531269e-04</internalNodes>
          <leafValues>
            -6.1583077907562256e-01 3.4438291192054749e-01</leafValues></_>
        <_>
          <internalNodes>
            0 -1 55 7.8912606113590300e-05</internalNodes>
          <leafValues>
            -3.6730936169624329e-01 6.2615138292312622e-01</leafValues></_>
        <_>
          <internalNodes>
            0 -1 39 1.9725461243069731e-05</internalNodes>
          <leafValues>
            3.7732824683189392e-01 -5.5146914720535278e-01</leafValues></_></weakClassifiers></_>
    <!-- stage 2 -->
    <_>
      <maxWeakCount>8</maxWeakCount>
      <stageThreshold>6.0984420776367188e-01</stageThreshold>
      <weakClassifiers>
        <_>
          <internalNodes>
            0 -1 40 1.2245206162333488e-03</internalNodes>
          <leafValues>
            5.6140351295471191e-01 -3.8888889551162720e-01</leafValues></_>
        <_>
          <internalNodes>
            0 -1 45 -1.9837897270917892e-02</internalNodes>
          <leafValues>
            8.4520339965820313e-01 -2.8341886401176453e-01</leafValues></_>
        <_>
          <internalNodes>
            0 -1 26 -4.0211699903011322e-02</internalNodes>
          <leafValues>
            -6.0578715801239014e-01 3.4961825609207153e-01</leafValues></_>
        <_>
          <internalNodes>
            0 -1 37 -9.1331880539655685e-03</internalNodes>
          <leafValues>
            7.1402156352996826e-01 -2.6266515254974365e-01</leafValues></_>
        <_>
          <internalNodes>
            0 -1 62 1.4120849664323032e-04</internalNodes>
          <leafValues>
            2.8785389661788940e-01 -6.4548557996749878e-01</leafValues></_>
        <_>
          <internalNodes>
            0 -1 46 1.4849415747448802e-03</internalNodes>
          <leafValues>
            -4.4626775383949280e-01 3.9659872651100159e-01</leafValues></_>
        <_>
          <internalNodes>
            0 -1 44 8.5913576185703278e-05</internalNodes>
          <leafValues>
            2.6618281006813049e-01 -6.9129419326782227e-01</leafValues></_>
        <_>
          <internalNodes>
            0 -1 67 -2.7128523215651512e-03</internalNodes>
          <leafValues>
            -7.1792632341384888e-01 2.4456340074539185e-01</leafValues></_></weakClassifiers></_>
    <!-- stage 3 -->
    <_>
      <maxWeakCount>8</maxWeakCount>
      <stageThreshold>6.0577940940856934e-01</stageThreshold>
      <weakClassifiers>
        <_>
          <internalNodes>
            0 -1 47 5.3202013077680022e-05</internalNodes>
          <leafValues>
            -2.0000000298023224e-01 6.6486483812332153e-01</leafValues></_>
        <_>
          <internalNodes>
            0 -1 27 -5.0262929871678352e-03</internalNodes>
          <leafValues>
            6.5652310848236084e-01 -2.8393059968948364e-01</leafValues></_>
        <_>
          <internalNodes>
            0 -1 28 1.1265140026807785e-02</internalNodes>
          <leafValues>
            -1.9237908720970154e-01 8.1606286764144897e-01</leafValues></_>
        <_>
          <internalNodes>
            0 -1 34 4.7747093958605547e-06</internalNodes>
          <leafValues>
            -3.1312718987464905e-01 5.8336865901947021e-01</leafValues></_>
        <_>
          <internalNodes>
            0 -1 2 5.1512295613065362e-05</internalNodes>
          <leafValues>
            3.3263146877288818e-01 -5.7641190290451050e-01</leafValues></_>
        <_>
          <internalNodes>
            0 -1 63 6.2498368788510561e-04</internalNodes>
          <leafValues>
            -3.4521526098251343e-01 5.3518152236938477e-01</leafValues></_>
        <_>
          <internalNodes>
            0 -1 16 -3.2074537011794746e-04</internalNodes>
          <leafValues>
            -6.6018146276473999e-01 3.1455340981483459e-01</leafValues></_>
        <_>
          <internalNodes>
            0 -1 59 1.0096235200762749e-04</internalNodes>
          <leafValues>
            -4.0518620610237122e-01 5.0630474090576172e-01</leafValues></_></weakClassifiers></_>
    <!-- stage 4 -->
    <_>
      <maxWeakCount>7</maxWeakCount>
      <stageThreshold>2.7562135457992554e-01</stageThreshold>
      <weakClassifiers>
        <_>
          <internalNodes>
            0 -1 24 6.5701506100594997e-03</internalNodes>
          <leafValues>
            -7.3825500905513763e-02 7.3509931564331055e-01</leafValues></_>
        <_>
          <internalNodes>
            0 -1 4 -3.7787522887811065e-04</internalNodes>
          <leafValues>
            -5.5229514837265015e-01 4.1430187225341797e-01</leafValues></_>
        <_>
          <internalNodes>
            0 -1 52 -1.2961580068804324e-04</internalNodes>
          <leafValues>
            5.0546330213546753e-01 -3.3732664585113525e-01</leafValues></_>
        <_>
          <internalNodes>
            0 -1 3 7.7846780186519027e-05</internalNodes>
          <leafValues>
            3.1732702255249023e-01 -5.6771904230117798e-01</leafValues></_>
        <_>
          <internalNodes>
            0 -1 32 4.8054270446300507e-02</internalNodes>
          <leafValues>
            -3.8024705648422241e-01 5.7413780689239502e-01</leafValues></_>
        <_>
          <internalNodes>
            0 -1 5 -3.5365223884582520e-03</internalNodes>
          <leafValues>
            5.4052108526229858e-01 -3.1827056407928467e-01</leafValues></_>
        <_>
          <internalNodes>
            0 -1 41 1.4452596195042133e-02</internalNodes>
          <leafValues>
            -1.9291731715202332e-01 8.8998878002166748e-01</leafValues></_></weakClassifiers></_>
    <!-- stage 5 -->
    <_>
      <maxWeakCount>8</maxWeakCount>
      <stageThreshold>4.8779526352882385e-01</stageThreshold>
      <weakClassifiers>
        <_>
          <internalNodes>
            0 -1 15 9.3329511582851410e-03</internalNodes>
          <leafValues>
            2.1052632480859756e-02 8.7272727489471436e-01</leafValues></_>
        <_>
          <internalNodes>
            0 -1 35 3.4687720471993089e-04</internalNodes>
          <leafValues>
            3.8115713000297546e-01 -6.4615428447723389e-01</leafValues></_>
        <_>
          <internalNodes>
            0 -1 38 -4.6151145943440497e-04</internalNodes>
          <leafValues>
            -6.2189143896102905e-01 3.2070368528366089e-01</leafValues></_>
        <_>
          <internalNodes>
            0 -1 9 -1.2085828348062932e-04</internalNodes>
          <leafValues>
            -6.0305625200271606e-01 3.4096214175224304e-01</leafValues></_>
        <_>
          <internalNodes>
            0 -1 1 2.8686842415481806e-03</internalNodes>
          <leafValues>
            2.8544342517852783e-01 -7.1264380216598511e-01</leafValues></_>
        <_>
          <internalNodes>
            0 -1 54 -5.9892404824495316e-03</internalNodes>
          <leafValues>
            7.2838670015335083e-01 -3.3078467845916748e-01</leafValues></_>
        <_>
          <internalNodes>
            0 -1 66 2.4548819055780768e-04</internalNodes>
          <leafValues>
            2.6298949122428894e-01 -8.3918476104736328e-01</leafValues></_>
        <_>
          <internalNodes>
            0 -1 61 -1.4877077774144709e-04</internalNodes>
          <leafValues>
            -8.4269636869430542e-01 2.3358286917209625e-01</leafValues></_></weakClassifiers></_>
    <!-- stage 6 -->
    <_>
      <maxWeakCount>9</maxWeakCount>
      <stageThreshold>2.0929116010665894e-01</stageThreshold>
      <weakClassifiers>
        <_>
          <internalNodes>
            0 -1 36 -1.2762317201122642e-03</internalNodes>
          <leafValues>
            -2.0833332836627960e-01 5.8823531866073608e-01</leafValues></_>
        <_>
          <internalNodes>
            0 -1 42 -1.5347785665653646e-04</internalNodes>
          <leafValues>
            5.4078817367553711e-01 -2.5931823253631592e-01</leafValues></_>
        <_>
          <internalNodes>
            0 -1 53 -6.8713398650288582e-04</internalNodes>
          <leafValues>
            -6.1693114042282104e-01 2.6195266842842102e-01</leafValues></_>
        <_>
          <internalNodes>
            0 -1 31 6.4834509976208210e-04</internalNodes>
          <leafValues>
            -3.1104016304016113e-01 5.9667474031448364e-01</leafValues></_>
        <_>
          <internalNodes>
            0 -1 0 1.6819597221910954e-03</internalNodes>
          <leafValues>
            3.5580104589462280e-01 -5.0034558773040771e-01</leafValues></_>
        <_>
          <internalNodes>
            0 -1 13 2.8476706938818097e-04</internalNodes>
          <leafValues>
            -2.8724253177642822e-01 6.4304161071777344e-01</leafValues></_>
        <_>
          <internalNodes>
            0 -1 21 5.5001850705593824e-04</internalNodes>
          <leafValues>
            2.2575855255126953e-01 -7.6402056217193604e-01</leafValues></_>
        <_>
          <internalNodes>
            0 -1 29 -1.0752447415143251e-03</internalNodes>
          <leafValues>
            8.4534657001495361e-01 -2.2486259043216705e-01</leafValues></_>
        <_>
          <internalNodes>
            0 -1 58 1.2360917753539979e-04</internalNodes>
          <leafValues>
            -3.3131825923919678e-01 5.8522605895996094e-01</leafValues></_></weakClassifiers></_>
    <!-- stage 7 -->
    <_>
      <maxWeakCount>8</maxWeakCount>
      <stageThreshold>1.5478189289569855e-01</stageThreshold>
      <weakClassifiers>
        <_>
          <internalNodes>
            0 -1 12 7.9557653516530991e-03</internalNodes>
          <leafValues>
            -1.4754098653793335e-01 6.6292136907577515e-01</leafValues></_>
        <_>
          <internalNodes>
            0 -1 19 -3.4407037310302258e-03</internalNodes>
          <leafValues>
            5.1798713207244873e-01 -3.5570925474166870e-01</leafValues></_>
        <_>
          <internalNodes>
            0 -1 57 -2.8533563636301551e-06</internalNodes>
          <leafValues>
            3.7216004729270935e-01 -4.3166431784629822e-01</leafValues></_>
        <_>
          <internalNodes>
            0 -1 33 2.2516936063766479e-02</internalNodes>
          <leafValues>
            -3.0794891715049744e-01 5.8148068189620972e-01</leafValues></_>
        <_>
          <internalNodes>
            0 -1 6 -1.4243696568883024e-05</internalNodes>
          <leafValues>
            4.6382674574851990e-01 -3.6987069249153137e-01</leafValues></_>
        <_>
          <internalNodes>
            0 -1 65 -1.6697631217539310e-03</internalNodes>
          <leafValues>
            6.5936565399169922e-01 -2.5556409358978271e-01</leafValues></_>
        <_>
          <internalNodes>
            0 -1 7 7.0120464079082012e-04</internalNodes>
          <leafValues>
            -2.7173227071762085e-01 5.2760303020477295e-01</leafValues></_>
        <_>
          <internalNodes>
            0 -1 10 -6.9309797254391015e-05</internalNodes>
          <leafValues>
            6.2962740659713745e-01 -2.3877698183059692e-01</leafValues></_></weakClassifiers></_>
    <!-- stage 8 -->
    <_>
      <maxWeakCount>8</maxWeakCount>
      <stageThreshold>3.5824820399284363e-01</stageThreshold>
      <weakClassifiers>
        <_>
          <internalNodes>
            0 -1 25 -5.1936795935034752e-03</internalNodes>
          <leafValues>
            6.5517240762710571e-01 -1.1111111193895340e-01</leafValues></_>
        <_>
          <internalNodes>
            0 -1 49 1.8161970365326852e-04</internalNodes>
          <leafValues>
            -2.5899922847747803e-01 5.6255257129669189e-01</leafValues></_>
        <_>
          <internalNodes>
            0 -1 18 9.3037751503288746e-04</internalNodes>
          <leafValues>
            -3.9957782626152039e-01 3.8452774286270142e-01</leafValues></_>
        <_>
          <internalNodes>
            0 -1 60 -2.0363931544125080e-03</internalNodes>
          <leafValues>
            4.3598407506942749e-01 -3.7838798761367798e-01</leafValues></_>
        <_>
          <internalNodes>
            0 -1 51 -3.5491430026013404e-05</internalNodes>
          <leafValues>
            -6.4108073711395264e-01 2.1967940032482147e-01</leafValues></_>
        <_>
          <internalNodes>
            0 -1 22 -3.2429241400677711e-05</internalNodes>
          <leafValues>
            5.9653991460800171e-01 -3.0852004885673523e-01</leafValues></_>
        <_>
          <internalNodes>
            0 -1 64 -1.7958445823751390e-04</internalNodes>
          <leafValues>
            -4.7180023789405823e-01 3.5720744729042053e-01</leafValues></_>
        <_>
          <internalNodes>
            0 -1 11 1.0476045310497284e-02</internalNodes>
          <leafValues>
            -3.6053758859634399e-01 4.9306041002273560e-01</leafValues></_></weakClassifiers></_></stages>
  <features>
    <_>
      <rects>
        <_>
          0 0 12 14 -1.</_>
        <_>
          0 0 6 7 2.</_>
        <_>
          6 7 6 7 2.</_></rects>
      <tilted>0</tilted></_>
    <_>
      <rects>
        <_>
          0 9 4 28 -1.</_>
        <_>
          0 9 2 14 2.</_>
        <_>
          2 23 2 14 2.</_></rects>
      <tilted>0</tilted></_>
    <_>
      <rects>
        <_>
          0 22 1 3 -1.</_>
        <_>
          0 23 1 1 3.</_></rects>
      <tilted>0</tilted></_>
    <_>
      <rects>
        <_>
          1 13 3 2 -1.</_>
        <_>
          2 13 1 2 3.</_></rects>
      <tilted>0</tilted></_>
    <_>
      <rects>
        <_>
          1 31 3 4 -1.</_>
        <_>
          1 33 3 2 2.</_></rects>
      <tilted>0</tilted></_>
    <_>
      <rects>
        <_>
          1 41 46 6 -1.</_>
        <_>
          24 41 23 6 2.</_></rects>
      <tilted>0</tilted></_>
    <_>
      <rects>
        <_>
          2 6 12 3 -1.</_>
        <_>
          6 6 4 3 3.</_></rects>
      <tilted>0</tilted></_>
    <_>
      <rects>
        <_>
          2 11 4 15 -1.</_>
        <_>
          2 16 4 5 3.</_></rects>
      <tilted>0</tilted></_>
    <_>
      <rects>
        <_>
          2 22 22 6 -1.</_>
        <_>
          2 22 11 3 2.</_>
        <_>
          13 25 11 3 2.</_></rects>
      <tilted>0</tilted></_>
    <_>
      <rects>
        <_>
          2 27 2 6 -1.</_>
        <_>
          2 27 1 3 2.</_>
        <_>
          3 30 1 3 2.</_></rects>
      <tilted>0</tilted></_>
    <_>
      <rects>
        <_>
          5 0 8 1 -1.</_>
        <_>
          9 0 4 1 2.</_></rects>
      <tilted>0</tilted></_>
    <_>
      <rects>
        <_>
          5 15 20 10 -1.</_>
        <_>
          5 15 10 5 2.</_>
        <_>
          15 20 10 5 2.</_></rects>
      <tilted>0</tilted></_>
    <_>
      <rects>
        <_>
          8 0 18 34 -1.</_>
        <_>
          8 0 9 17 2.</_>
        <_>
          17 17 9 17 2.</_></rects>
      <tilted>0</tilted></_>
    <_>
      <rects>
        <_>
          8 8 3 15 -1.</_>
        <_>
          9 8 1 15 3.</_></rects>
      <tilted>0</tilted></_>
    <_>
      <rects>
        <_>
          8 21 20 14 -1.</_>
        <_>
          8 21 10 7 2.</_>
        <_>
          18 28 10 7 2.</_></rects>
      <tilted>0</tilted></_>
    <_>
      <rects>
        <_>
          8 22 36 1 -1.</_>
        <_>
          20 22 12 1 3.</_></rects>
      <tilted>0</tilted></_>
    <_>
      <rects>
        <_>
          9 0 2 6 -1.</_>
        <_>
          10 0 1 6 2.</_></rects>
      <tilted>0</tilted></_>
    <_>
      <rects>
        <_>
          9 13 18 10 -1.</_>
        <_>
          9 13 9 5 2.</_>
        <_>
          18 18 9 5 2.</_></rects>
      <tilted>0</tilted></_>
    <_>
      <rects>
        <_>
          11 11 10 29 -1.</_>
        <_>
          16 11 5 29 2.</_></rects>
      <tilted>0</tilted></_>
    <_>
      <rects>
        <_>
          11 21 15 5 -1.</_>
        <_>
          16 21 5 5 3.</_></rects>
      <tilted>0</tilted></_>
    <_>
      <rects>
        <_>
          11 40 6 3 -1.</_>
        <_>
          13 40 2 3 3.</_></rects>
      <tilted>0</tilted></_>
    <_>
      <rects>
        <_>
          11 41 8 4 -1.</_>
        <_>
          11 41 4 2 2.</_>
        <_>
          15 43 4 2 2.</_></rects>
      <tilted>0</tilted></_>
    <_>
      <rects>
        <_>
          12 30 4 2 -1.</_>
        <_>
          12 31 4 1 2.</_></rects>
      <tilted>0</tilted></_>
    <_>
      <rects>
        <_>
          13 21 16 3 -1.</_>
        <_>
          21 21 8 3 2.</_></rects>
      <tilted>0</tilted></_>
    <_>
      <rects>
        <_>
          15 21 12 4 -1.</_>
        <_>
          21 21 6 4 2.</_></rects>
      <tilted>0</tilted></_>
    <_>
      <rects>
        <_>
          15 23 11 15 -1.</_>
        <_>
          15 28 11 5 3.</_></rects>
      <tilted>0</tilted></_>
    <_>
      <rects>
        <_>
          16 7 27 36 -1.</_>
        <_>
          25 7 9 36 3.</_></rects>
      <tilted>0</tilted></_>
    <_>
      <rects>
        <_>
          16 13 10 24 -1.</_>
        <_>
          16 13 5 12 2.</_>
        <_>
          21 25 5 12 2.</_></rects>
      <tilted>0</tilted></_>
    <_>
      <rects>
        <_>
          16 20 12 28 -1.</_>
        <_>
          20 20 4 28 3.</_></rects>
      <tilted>0</tilted></_>
    <_>
      <rects>
        <_>
          17 20 2 16 -1.</_>
        <_>
          17 20 1 8 2.</_>
        <_>
          18 28 1 8 2.</_></rects>
      <tilted>0</tilted></_>
    <_>
      <rects>
        <_>
          17 20 6 10 -1.</_>
        <_>
          17 20 3 5 2.</_>
        <_>
          20 25 3 5 2.</_></rects>
      <tilted>0</tilted></_>
    <_>
      <rects>
        <_>
          17 20 10 2 -1.</_>
        <_>
          17 20 5 1 2.</_>
        <_>
          22 21 5 1 2.</_></rects>
      <tilted>0</tilted></_>
    <_>
      <rects>
        <_>
          18 10 30 37 -1.</_>
        <_>
          28 10 10 37 3.</_></rects>
      <tilted>0</tilted></_>
    <_>
      <rects>
        <_>
          18 11 24 13 -1.</_>
        <_>
          26 11 8 13 3.</_></rects>
      <tilted>0</tilted></_>
    <_>
      <rects>
        <_>
          19 2 6 2 -1.</_>
        <_>
          19 3 6 1 2.</_></rects>
      <tilted>0</tilted></_>
    <_>
      <rects>
        <_>
          19 40 2 8 -1.</_>
        <_>
          19 40 1 4 2.</_>
        <_>
          20 44 1 4 2.</_></rects>
      <tilted>0</tilted></_>
    <_>
      <rects>
        <_>
          20 12 14 6 -1.</_>
        <_>
          20 12 7 3 2.</_>
        <_>
          27 15 7 3 2.</_></rects>
      <tilted>0</tilted></_>
    <_>
      <rects>
        <_>
          20 17 16 8 -1.</_>
        <_>
          20 17 8 4 2.</_>
        <_>
          28 21 8 4 2.</_></rects>
      <tilted>0</tilted></_>
    <_>
      <rects>
        <_>
          21 28 2 15 -1.</_>
        <_>
          22 28 1 15 2.</_></rects>
      <tilted>0</tilted></_>
    <_>
      <rects>
        <_>
          22 1 3 1 -1.</_>
        <_>
          23 1 1 1 3.</_></rects>
      <tilted>0</tilted></_>
    <_>
      <rects>
        <_>
          22 5 9 5 -1.</_>
        <_>
          25 5 3 5 3.</_></rects>
      <tilted>0</tilted></_>
    <_>
      <rects>
        <_>
          22 18 4 12 -1.</_>
        <_>
          22 22 4 4 3.</_></rects>
      <tilted>0</tilted></_>
    <_>
      <rects>
        <_>
          22 24 1 2 -1.</_>
        <_>
          22 25 1 1 2.</_></rects>
      <tilted>0</tilted></_>
    <_>
      <rects>
        <_>
          22 39 2 8 -1.</_>
        <_>
          22 39 1 4 2.</_>
        <_>
          23 43 1 4 2.</_></rects>
      <tilted>0</tilted></_>
    <_>
      <rects>
        <_>
          22 45 3 1 -1.</_>
        <_>
          23 45 1 1 3.</_></rects>
      <tilted>0</tilted></_>
    <_>
      <rects>
        <_>
          23 22 9 18 -1.</_>
        <_>
          23 31 9 9 2.</_></rects>
      <tilted>0</tilted></_>
    <_>
      <rects>
        <_>
          24 11 3 14 -1.</_>
        <_>
          24 18 3 7 2.</_></rects>
      <tilted>0</tilted></_>
    <_>
      <rects>
        <_>
          24 18 1 6 -1.</_>
        <_>
          24 21 1 3 2.</_></rects>
      <tilted>0</tilted></_>
    <_>
      <rects>
        <_>
          24 19 2 9 -1.</_>
        <_>
          24 22 2 3 3.</_></rects>
      <tilted>0</tilted></_>
    <_>
      <rects>
        <_>
          24 22 1 3 -1.</_>
        <_>
          24 23 1 1 3.</_></rects>
      <tilted>0</tilted></_>
    <_>
      <rects>
        <_>
          24 22 3 12 -1.</_>
        <_>
          24 28 3 6 2.</_></rects>
      <tilted>0</tilted></_>
    <_>
      <rects>
        <_>
          24 23 3 2 -1.</_>
        <_>
          25 23 1 2 3.</_></rects>
      <tilted>0</tilted></_>
    <_>
      <rects>
        <_>
          24 24 1 2 -1.</_>
        <_>
          24 25 1 1 2.</_></rects>
      <tilted>0</tilted></_>
    <_>
      <rects>
        <_>
          24 37 4 8 -1.</_>
        <_>
          26 37 2 8 2.</_></rects>
      <tilted>0</tilted></_>
    <_>
      <rects>
        <_>
          25 20 10 8 -1.</_>
        <_>
          30 20 5 8 2.</_></rects>
      <tilted>0</tilted></_>
    <_>
      <rects>
        <_>
          25 21 1 2 -1.</_>
        <_>
          25 22 1 1 2.</_></rects>
      <tilted>0</tilted></_>
    <_>
      <rects>
        <_>
          25 25 4 2 -1.</_>
        <_>
          25 25 2 1 2.</_>
        <_>
          27 26 2 1 2.</_></rects>
      <tilted>0</tilted></_>
    <_>
      <rects>
        <_>
          26 24 2 1 -1.</_>
        <_>
          27 24 1 1 2.</_></rects>
      <tilted>0</tilted></_>
    <_>
      <rects>
        <_>
          26 24 4 2 -1.</_>
        <_>
          26 24 2 1 2.</_>
        <_>
          28 25 2 1 2.</_></rects>
      <tilted>0</tilted></_>
    <_>
      <rects>
        <_>
          28 23 2 3 -1.</_>
        <_>
          28 24 2 1 3.</_></rects>
      <tilted>0</tilted></_>
    <_>
      <rects>
        <_>
          29 12 8 17 -1.</_>
        <_>
          33 12 4 17 2.</_></rects>
      <tilted>0</tilted></_>
    <_>
      <rects>
        <_>
          30 43 2 2 -1.</_>
        <_>
          31 43 1 2 2.</_></rects>
      <tilted>0</tilted></_>
    <_>
      <rects>
        <_>
          33 8 3 2 -1.</_>
        <_>
          34 8 1 2 3.</_></rects>
      <tilted>0</tilted></_>
    <_>
      <rects>
        <_>
          34 8 4 30 -1.</_>
        <_>
          34 8 2 15 2.</_>
        <_>
          36 23 2 15 2.</_></rects>
      <tilted>0</tilted></_>
    <_>
      <rects>
        <_>
          38 12 9 5 -1.</_>
        <_>
          41 12 3 5 3.</_></rects>
      <tilted>0</tilted></_>
    <_>
      <rects>
        <_>
          39 33 3 12 -1.</_>
        <_>
          39 39 3 6 2.</_></rects>
      <tilted>0</tilted></_>
    <_>
      <rects>
        <_>
          41 10 2 3 -1.</_>
        <_>
          42 10 1 3 2.</_></rects>
      <tilted>0</tilted></_>
    <_>
      <rects>
        <_>
          43 25 5 12 -1.</_>
        <_>
          43 29 5 4 3.</_></rects>
      <tilted>0</tilted></_>
    <_>
      <rects>
        <_>
          45 7 3 5 -1.</_>
        <_>
          46 7 1 5 3.</_></rects>
      <tilted>0</tilted></_></features></cascade>
</opencv_storage>
