<?xml version="1.0"?>
<opencv_storage>
<stage8>
  <maxWeakCount>15</maxWeakCount>
  <stageThreshold>3.3122074604034424e-01</stageThreshold>
  <weakClassifiers>
    <_>
      <internalNodes>
        0 -1 477638 -5.7012401521205902e-02</internalNodes>
      <leafValues>
        -1. 4.3369176983833313e-01</leafValues></_>
    <_>
      <internalNodes>
        0 -1 2151715 -4.0244776755571365e-04</internalNodes>
      <leafValues>
        6.0675847530364990e-01 -2.7026146650314331e-01</leafValues></_>
    <_>
      <internalNodes>
        0 -1 1663393 -1.9064317457377911e-03</internalNodes>
      <leafValues>
        -5.4320544004440308e-01 2.9164177179336548e-01</leafValues></_>
    <_>
      <internalNodes>
        0 -1 1963565 -1.8968862423207611e-04</internalNodes>
      <leafValues>
        6.8193572759628296e-01 -2.6245278120040894e-01</leafValues></_>
    <_>
      <internalNodes>
        0 -1 664932 -1.2363006826490164e-03</internalNodes>
      <leafValues>
        6.4342659711837769e-01 -3.0570212006568909e-01</leafValues></_>
    <_>
      <internalNodes>
        0 -1 583051 -8.0563404480926692e-06</internalNodes>
      <leafValues>
        5.1472538709640503e-01 -3.3564582467079163e-01</leafValues></_>
    <_>
      <internalNodes>
        0 -1 2164646 7.7072472777217627e-05</internalNodes>
      <leafValues>
        3.3342239260673523e-01 -5.1841175556182861e-01</leafValues></_>
    <_>
      <internalNodes>
        0 -1 1912297 -2.0438761566765606e-04</internalNodes>
      <leafValues>
        6.4124882221221924e-01 -2.6273247599601746e-01</leafValues></_>
    <_>
      <internalNodes>
        0 -1 929263 -1.7070556350518018e-04</internalNodes>
      <leafValues>
        -4.6402922272682190e-01 3.7245342135429382e-01</leafValues></_>
    <_>
      <internalNodes>
        0 -1 1269827 3.0168285593390465e-04</internalNodes>
      <leafValues>
        -2.3913529515266418e-01 8.6984717845916748e-01</leafValues></_>
    <_>
      <internalNodes>
        0 -1 1063551 -4.1959038935601711e-03</internalNodes>
      <leafValues>
        -5.6564795970916748e-01 3.6915770173072815e-01</leafValues></_>
    <_>
      <internalNodes>
        0 -1 2535635 7.1480870246887207e-04</internalNodes>
      <leafValues>
        -2.9432970285415649e-01 6.5580576658248901e-01</leafValues></_>
    <_>
      <internalNodes>
        0 -1 2226833 -1.8064176401821896e-05</internalNodes>
      <leafValues>
        4.8331457376480103e-01 -3.6725449562072754e-01</leafValues></_>
    <_>
      <internalNodes>
        0 -1 1504647 4.3470175005495548e-03</internalNodes>
      <leafValues>
        -3.4317892789840698e-01 4.8159435391426086e-01</leafValues></_>
    <_>
      <internalNodes>
        0 -1 315583 -9.0065808035433292e-04</internalNodes>
      <leafValues>
        -4.0600982308387756e-01 4.3587315082550049e-01</leafValues></_></weakClassifiers></stage8>
</opencv_storage>
