<?xml version="1.0"?>
<opencv_storage>
<stage1>
  <maxWeakCount>32</maxWeakCount>
  <stageThreshold>-1.2662510871887207e+00</stageThreshold>
  <weakClassifiers>
    <_>
      <internalNodes>
        0 -1 77921 -1.7849193885922432e-02</internalNodes>
      <leafValues>
        6.0431653261184692e-01 -3.6049383878707886e-01</leafValues></_>
    <_>
      <internalNodes>
        0 -1 112299 -6.1668730340898037e-03</internalNodes>
      <leafValues>
        3.6947962641716003e-01 -2.1910628676414490e-01</leafValues></_>
    <_>
      <internalNodes>
        0 -1 104639 8.7387664243578911e-03</internalNodes>
      <leafValues>
        -1.0114070773124695e-01 4.3981757760047913e-01</leafValues></_>
    <_>
      <internalNodes>
        0 -1 128305 -1.2166399508714676e-02</internalNodes>
      <leafValues>
        2.3144793510437012e-01 -2.2743351757526398e-01</leafValues></_>
    <_>
      <internalNodes>
        0 -1 125443 1.6372404061257839e-03</internalNodes>
      <leafValues>
        -1.5645289421081543e-01 3.3978345990180969e-01</leafValues></_>
    <_>
      <internalNodes>
        0 -1 125439 -1.8076176056638360e-03</internalNodes>
      <leafValues>
        3.3296984434127808e-01 -1.3586550951004028e-01</leafValues></_>
    <_>
      <internalNodes>
        0 -1 44037 3.5182363353669643e-03</internalNodes>
      <leafValues>
        -1.5733106434345245e-01 2.6671439409255981e-01</leafValues></_>
    <_>
      <internalNodes>
        0 -1 86816 -2.5672980118542910e-03</internalNodes>
      <leafValues>
        3.2206779718399048e-01 -1.2301316857337952e-01</leafValues></_>
    <_>
      <internalNodes>
        0 -1 159643 -7.4438843876123428e-04</internalNodes>
      <leafValues>
        -5.4527658224105835e-01 1.0343597084283829e-01</leafValues></_>
    <_>
      <internalNodes>
        0 -1 86428 8.8394396007061005e-03</internalNodes>
      <leafValues>
        -1.8102319538593292e-01 2.4947172403335571e-01</leafValues></_>
    <_>
      <internalNodes>
        0 -1 21593 -1.5557191800326109e-03</internalNodes>
      <leafValues>
        -3.5740691423416138e-01 1.3521417975425720e-01</leafValues></_>
    <_>
      <internalNodes>
        0 -1 77251 1.7172754742205143e-03</internalNodes>
      <leafValues>
        -1.8452283740043640e-01 2.0983900129795074e-01</leafValues></_>
    <_>
      <internalNodes>
        0 -1 124289 -4.7940094955265522e-03</internalNodes>
      <leafValues>
        3.8858833909034729e-01 -6.7091733217239380e-02</leafValues></_>
    <_>
      <internalNodes>
        0 -1 151666 1.3003959320485592e-03</internalNodes>
      <leafValues>
        8.4147758781909943e-02 -4.4274920225143433e-01</leafValues></_>
    <_>
      <internalNodes>
        0 -1 157971 1.3568900758400559e-03</internalNodes>
      <leafValues>
        9.6433326601982117e-02 -3.6179712414741516e-01</leafValues></_>
    <_>
      <internalNodes>
        0 -1 146785 -1.9790831953287125e-02</internalNodes>
      <leafValues>
        2.8486335277557373e-01 -1.4395923912525177e-01</leafValues></_>
    <_>
      <internalNodes>
        0 -1 150661 -9.4053742941468954e-04</internalNodes>
      <leafValues>
        -4.6565023064613342e-01 8.7031945586204529e-02</leafValues></_>
    <_>
      <internalNodes>
        0 -1 36905 -3.5742361098527908e-02</internalNodes>
      <leafValues>
        4.9159073829650879e-01 -9.9092639982700348e-02</leafValues></_>
    <_>
      <internalNodes>
        0 -1 111433 1.2331278994679451e-03</internalNodes>
      <leafValues>
        -7.1105279028415680e-02 3.4002938866615295e-01</leafValues></_>
    <_>
      <internalNodes>
        0 -1 137063 -4.2038060724735260e-02</internalNodes>
      <leafValues>
        6.0845381021499634e-01 -5.2509885281324387e-02</leafValues></_>
    <_>
      <internalNodes>
        0 -1 131757 1.1218200437724590e-02</internalNodes>
      <leafValues>
        -1.0446225851774216e-01 3.3144438266754150e-01</leafValues></_>
    <_>
      <internalNodes>
        0 -1 159720 -1.1497694067656994e-03</internalNodes>
      <leafValues>
        -6.6376131772994995e-01 4.9508042633533478e-02</leafValues></_>
    <_>
      <internalNodes>
        0 -1 28493 -2.1130833774805069e-02</internalNodes>
      <leafValues>
        4.1097313165664673e-01 -8.1544041633605957e-02</leafValues></_>
    <_>
      <internalNodes>
        0 -1 52042 3.7593796150758862e-04</internalNodes>
      <leafValues>
        7.9204641282558441e-02 -3.9528492093086243e-01</leafValues></_>
    <_>
      <internalNodes>
        0 -1 119019 5.0543242832645774e-04</internalNodes>
      <leafValues>
        -1.4440248906612396e-01 2.1922427415847778e-01</leafValues></_>
    <_>
      <internalNodes>
        0 -1 145628 -1.8819866236299276e-03</internalNodes>
      <leafValues>
        -7.3701703548431396e-01 3.2364118844270706e-02</leafValues></_>
    <_>
      <internalNodes>
        0 -1 57083 1.3743749260902405e-01</internalNodes>
      <leafValues>
        7.1867801249027252e-02 -4.1337099671363831e-01</leafValues></_>
    <_>
      <internalNodes>
        0 -1 25454 2.2758829873055220e-03</internalNodes>
      <leafValues>
        5.8882191777229309e-02 -5.1559442281723022e-01</leafValues></_>
    <_>
      <internalNodes>
        0 -1 57956 5.0435038283467293e-03</internalNodes>
      <leafValues>
        -1.5746197104454041e-01 1.7791846394538879e-01</leafValues></_>
    <_>
      <internalNodes>
        0 -1 102476 1.0109248757362366e-01</internalNodes>
      <leafValues>
        4.9208596348762512e-02 -5.9746378660202026e-01</leafValues></_>
    <_>
      <internalNodes>
        0 -1 34369 3.7230238318443298e-02</internalNodes>
      <leafValues>
        -1.3859933614730835e-01 2.4426472187042236e-01</leafValues></_>
    <_>
      <internalNodes>
        0 -1 29230 -4.2749625444412231e-01</internalNodes>
      <leafValues>
        -6.4065510034561157e-01 5.3480803966522217e-02</leafValues></_></weakClassifiers></stage1>
</opencv_storage>
