<?xml version="1.0"?>
<opencv_storage>
<stage5>
  <maxWeakCount>36</maxWeakCount>
  <stageThreshold>-1.5152064561843872e+00</stageThreshold>
  <weakClassifiers>
    <_>
      <internalNodes>
        0 -1 135851 1.6535714268684387e-01</internalNodes>
      <leafValues>
        -6.6085457801818848e-01 4.2857143282890320e-01</leafValues></_>
    <_>
      <internalNodes>
        0 -1 21304 3.4130966663360596e-01</internalNodes>
      <leafValues>
        -3.1471967697143555e-02 -5.3217577934265137e-01</leafValues></_>
    <_>
      <internalNodes>
        0 -1 16523 -6.5690092742443085e-03</internalNodes>
      <leafValues>
        -2.9227900505065918e-01 1.4410886168479919e-01</leafValues></_>
    <_>
      <internalNodes>
        0 -1 112388 -3.9066120982170105e-02</internalNodes>
      <leafValues>
        -2.9258057475090027e-01 1.2054393440485001e-01</leafValues></_>
    <_>
      <internalNodes>
        0 -1 37758 6.7957054125145078e-04</internalNodes>
      <leafValues>
        7.3226891458034515e-02 -4.4008263945579529e-01</leafValues></_>
    <_>
      <internalNodes>
        0 -1 134357 3.4800283610820770e-03</internalNodes>
      <leafValues>
        -1.2033256143331528e-01 2.3905879259109497e-01</leafValues></_>
    <_>
      <internalNodes>
        0 -1 85290 -6.7216306924819946e-02</internalNodes>
      <leafValues>
        5.9293580055236816e-01 -4.8178128898143768e-02</leafValues></_>
    <_>
      <internalNodes>
        0 -1 113678 1.3367392821237445e-03</internalNodes>
      <leafValues>
        6.0217071324586868e-02 -4.3312856554985046e-01</leafValues></_>
    <_>
      <internalNodes>
        0 -1 190761 1.3341000303626060e-02</internalNodes>
      <leafValues>
        -5.8833457529544830e-02 3.7611997127532959e-01</leafValues></_>
    <_>
      <internalNodes>
        0 -1 140787 -5.7375244796276093e-03</internalNodes>
      <leafValues>
        2.1838916838169098e-01 -1.5499919652938843e-01</leafValues></_>
    <_>
      <internalNodes>
        0 -1 113726 -1.6603434924036264e-03</internalNodes>
      <leafValues>
        -2.9368385672569275e-01 8.1976361572742462e-02</leafValues></_>
    <_>
      <internalNodes>
        0 -1 146145 -1.1379020288586617e-02</internalNodes>
      <leafValues>
        1.9870856404304504e-01 -1.3224680721759796e-01</leafValues></_>
    <_>
      <internalNodes>
        0 -1 116189 7.0506677031517029e-02</internalNodes>
      <leafValues>
        -7.1289718151092529e-02 4.7060123085975647e-01</leafValues></_>
    <_>
      <internalNodes>
        0 -1 181769 -1.0150852613151073e-03</internalNodes>
      <leafValues>
        -2.7903929352760315e-01 8.8856481015682220e-02</leafValues></_>
    <_>
      <internalNodes>
        0 -1 169649 7.5131969060748816e-04</internalNodes>
      <leafValues>
        1.3234870135784149e-01 -1.9719788432121277e-01</leafValues></_>
    <_>
      <internalNodes>
        0 -1 35367 -4.0643888496560976e-05</internalNodes>
      <leafValues>
        1.8503347039222717e-01 -1.4933802187442780e-01</leafValues></_>
    <_>
      <internalNodes>
        0 -1 18386 -2.2137377411127090e-02</internalNodes>
      <leafValues>
        2.9393246769905090e-01 -8.7971284985542297e-02</leafValues></_>
    <_>
      <internalNodes>
        0 -1 139389 -1.4940027613192797e-03</internalNodes>
      <leafValues>
        2.0145383477210999e-01 -1.1954739689826965e-01</leafValues></_>
    <_>
      <internalNodes>
        0 -1 93614 1.5452936291694641e-01</internalNodes>
      <leafValues>
        3.2934296876192093e-02 -7.7724957466125488e-01</leafValues></_>
    <_>
      <internalNodes>
        0 -1 6 -9.2376640532165766e-04</internalNodes>
      <leafValues>
        -4.9578917026519775e-01 4.4432494789361954e-02</leafValues></_>
    <_>
      <internalNodes>
        0 -1 150210 -2.3908615112304688e-02</internalNodes>
      <leafValues>
        2.0096462965011597e-01 -1.3452272117137909e-01</leafValues></_>
    <_>
      <internalNodes>
        0 -1 141913 -2.1505155600607395e-03</internalNodes>
      <leafValues>
        -2.5261190533638000e-01 1.0409103333950043e-01</leafValues></_>
    <_>
      <internalNodes>
        0 -1 115128 -1.7477806657552719e-02</internalNodes>
      <leafValues>
        2.5360655784606934e-01 -9.5346383750438690e-02</leafValues></_>
    <_>
      <internalNodes>
        0 -1 170482 -1.7698697745800018e-02</internalNodes>
      <leafValues>
        6.3368242979049683e-01 -4.3854273855686188e-02</leafValues></_>
    <_>
      <internalNodes>
        0 -1 28066 3.2363705337047577e-02</internalNodes>
      <leafValues>
        -4.9116760492324829e-02 4.4159033894538879e-01</leafValues></_>
    <_>
      <internalNodes>
        0 -1 32106 2.5786345358937979e-03</internalNodes>
      <leafValues>
        4.7406062483787537e-02 -5.3310346603393555e-01</leafValues></_>
    <_>
      <internalNodes>
        0 -1 251838 -1.3627916574478149e-01</internalNodes>
      <leafValues>
        -6.6111266613006592e-01 3.2652169466018677e-02</leafValues></_>
    <_>
      <internalNodes>
        0 -1 2810 2.6446678675711155e-03</internalNodes>
      <leafValues>
        3.7860803306102753e-02 -5.2882015705108643e-01</leafValues></_>
    <_>
      <internalNodes>
        0 -1 221564 -1.7329566180706024e-03</internalNodes>
      <leafValues>
        2.5233840942382813e-01 -9.4951003789901733e-02</leafValues></_>
    <_>
      <internalNodes>
        0 -1 237131 -9.3630433548241854e-04</internalNodes>
      <leafValues>
        2.3318825662136078e-01 -1.1682269722223282e-01</leafValues></_>
    <_>
      <internalNodes>
        0 -1 166387 -6.4112112158909440e-04</internalNodes>
      <leafValues>
        2.3635779321193695e-01 -1.0724052786827087e-01</leafValues></_>
    <_>
      <internalNodes>
        0 -1 261018 -8.5431261686608195e-04</internalNodes>
      <leafValues>
        -4.7188490629196167e-01 5.5245950818061829e-02</leafValues></_>
    <_>
      <internalNodes>
        0 -1 191631 -4.6238761569838971e-05</internalNodes>
      <leafValues>
        1.6716904938220978e-01 -1.5402069687843323e-01</leafValues></_>
    <_>
      <internalNodes>
        0 -1 118275 3.3469794288976118e-05</internalNodes>
      <leafValues>
        -1.3799329102039337e-01 1.8290042877197266e-01</leafValues></_>
    <_>
      <internalNodes>
        0 -1 178856 -1.2224196325405501e-05</internalNodes>
      <leafValues>
        1.6680796444416046e-01 -1.3598422706127167e-01</leafValues></_>
    <_>
      <internalNodes>
        0 -1 108768 -1.6399059444665909e-02</internalNodes>
      <leafValues>
        2.5754010677337646e-01 -9.6790045499801636e-02</leafValues></_></weakClassifiers></stage5>
</opencv_storage>
