<?xml version="1.0"?>
<opencv_storage>
<stage2>
  <maxWeakCount>96</maxWeakCount>
  <stageThreshold>-1.6353248059749603e-01</stageThreshold>
  <weakClassifiers>
    <_>
      <internalNodes>
        0 -1 118682 2.3964740335941315e-02</internalNodes>
      <leafValues>
        -3.2365339994430542e-01 5.2328765392303467e-01</leafValues></_>
    <_>
      <internalNodes>
        0 -1 85891 9.4026550650596619e-03</internalNodes>
      <leafValues>
        -1.3310950994491577e-01 3.3322608470916748e-01</leafValues></_>
    <_>
      <internalNodes>
        0 -1 111094 -9.6221305429935455e-03</internalNodes>
      <leafValues>
        -5.2318751811981201e-01 3.7015240639448166e-02</leafValues></_>
    <_>
      <internalNodes>
        0 -1 129430 -4.4294125400483608e-03</internalNodes>
      <leafValues>
        -3.0125695466995239e-01 1.6236943006515503e-01</leafValues></_>
    <_>
      <internalNodes>
        0 -1 31211 -1.4238283038139343e-03</internalNodes>
      <leafValues>
        1.0917135328054428e-01 -2.4819460511207581e-01</leafValues></_>
    <_>
      <internalNodes>
        0 -1 118699 1.3253625482320786e-02</internalNodes>
      <leafValues>
        8.7165184319019318e-02 -5.0247877836227417e-01</leafValues></_>
    <_>
      <internalNodes>
        0 -1 85339 -6.6743828356266022e-03</internalNodes>
      <leafValues>
        3.3863186836242676e-01 -8.5591986775398254e-02</leafValues></_>
    <_>
      <internalNodes>
        0 -1 86327 3.1363070011138916e-03</internalNodes>
      <leafValues>
        -1.1194054782390594e-01 2.3416870832443237e-01</leafValues></_>
    <_>
      <internalNodes>
        0 -1 125755 -6.4949034713208675e-03</internalNodes>
      <leafValues>
        -8.2171684503555298e-01 3.6210704594850540e-02</leafValues></_>
    <_>
      <internalNodes>
        0 -1 125350 -1.9352788804098964e-03</internalNodes>
      <leafValues>
        1.8450380861759186e-01 -1.4721694588661194e-01</leafValues></_>
    <_>
      <internalNodes>
        0 -1 92115 4.8461724072694778e-03</internalNodes>
      <leafValues>
        -1.3333058357238770e-01 1.8621200323104858e-01</leafValues></_>
    <_>
      <internalNodes>
        0 -1 66159 1.7391508445143700e-02</internalNodes>
      <leafValues>
        1.5909984707832336e-02 -9.0157377719879150e-01</leafValues></_>
    <_>
      <internalNodes>
        0 -1 45593 -8.0408463254570961e-03</internalNodes>
      <leafValues>
        -5.9213531017303467e-01 3.2735820859670639e-02</leafValues></_>
    <_>
      <internalNodes>
        0 -1 49413 -2.9209008789621294e-04</internalNodes>
      <leafValues>
        1.8757867813110352e-01 -1.2664616107940674e-01</leafValues></_>
    <_>
      <internalNodes>
        0 -1 113333 -6.6647678613662720e-04</internalNodes>
      <leafValues>
        -3.1561851501464844e-01 8.0885328352451324e-02</leafValues></_>
    <_>
      <internalNodes>
        0 -1 135272 -1.5197799541056156e-02</internalNodes>
      <leafValues>
        2.1641978621482849e-01 -1.1160281300544739e-01</leafValues></_>
    <_>
      <internalNodes>
        0 -1 118981 -1.3704412849619985e-03</internalNodes>
      <leafValues>
        1.8281862139701843e-01 -1.4012034237384796e-01</leafValues></_>
    <_>
      <internalNodes>
        0 -1 119919 2.3538507521152496e-03</internalNodes>
      <leafValues>
        -8.3991460502147675e-02 3.4102097153663635e-01</leafValues></_>
    <_>
      <internalNodes>
        0 -1 119919 -1.2760267127305269e-03</internalNodes>
      <leafValues>
        2.4515029788017273e-01 -9.2929646372795105e-02</leafValues></_>
    <_>
      <internalNodes>
        0 -1 105154 1.5558963641524315e-02</internalNodes>
      <leafValues>
        3.6394547671079636e-02 -6.2977313995361328e-01</leafValues></_>
    <_>
      <internalNodes>
        0 -1 65838 9.1598048806190491e-02</internalNodes>
      <leafValues>
        2.1356066688895226e-02 -7.9792916774749756e-01</leafValues></_>
    <_>
      <internalNodes>
        0 -1 159300 -5.1064891740679741e-03</internalNodes>
      <leafValues>
        -5.4466742277145386e-01 3.4966245293617249e-02</leafValues></_>
    <_>
      <internalNodes>
        0 -1 74525 -1.5862666070461273e-02</internalNodes>
      <leafValues>
        7.5417613983154297e-01 -3.0328987166285515e-02</leafValues></_>
    <_>
      <internalNodes>
        0 -1 93678 -9.9996314384043217e-04</internalNodes>
      <leafValues>
        -2.9886060953140259e-01 8.8162228465080261e-02</leafValues></_>
    <_>
      <internalNodes>
        0 -1 10739 -2.5332747027277946e-03</internalNodes>
      <leafValues>
        2.1539865434169769e-01 -1.1788359284400940e-01</leafValues></_>
    <_>
      <internalNodes>
        0 -1 110654 -1.2702539563179016e-02</internalNodes>
      <leafValues>
        4.9719986319541931e-01 -4.9064245074987411e-02</leafValues></_>
    <_>
      <internalNodes>
        0 -1 118652 -1.0126052424311638e-02</internalNodes>
      <leafValues>
        -8.7676864862442017e-01 3.1802196055650711e-02</leafValues></_>
    <_>
      <internalNodes>
        0 -1 93247 4.1296333074569702e-02</internalNodes>
      <leafValues>
        1.9226627424359322e-02 -7.8910034894943237e-01</leafValues></_>
    <_>
      <internalNodes>
        0 -1 94885 6.2122434377670288e-02</internalNodes>
      <leafValues>
        3.5998571664094925e-02 -5.8817398548126221e-01</leafValues></_>
    <_>
      <internalNodes>
        0 -1 47120 9.3328496441245079e-03</internalNodes>
      <leafValues>
        -3.5059791058301926e-02 7.6285487413406372e-01</leafValues></_>
    <_>
      <internalNodes>
        0 -1 89842 -1.6304101794958115e-02</internalNodes>
      <leafValues>
        4.7902977466583252e-01 -3.5512425005435944e-02</leafValues></_>
    <_>
      <internalNodes>
        0 -1 34636 3.3578805625438690e-02</internalNodes>
      <leafValues>
        -3.6317076534032822e-02 6.2279802560806274e-01</leafValues></_>
    <_>
      <internalNodes>
        0 -1 131540 1.5672966837882996e-03</internalNodes>
      <leafValues>
        7.6311819255352020e-02 -2.6853555440902710e-01</leafValues></_>
    <_>
      <internalNodes>
        0 -1 110122 8.8658928871154785e-04</internalNodes>
      <leafValues>
        9.4181731343269348e-02 -2.2211146354675293e-01</leafValues></_>
    <_>
      <internalNodes>
        0 -1 26823 5.4575568065047264e-03</internalNodes>
      <leafValues>
        2.8404729440808296e-02 -6.6010487079620361e-01</leafValues></_>
    <_>
      <internalNodes>
        0 -1 68588 1.7125103622674942e-02</internalNodes>
      <leafValues>
        -2.7243250980973244e-02 8.2743209600448608e-01</leafValues></_>
    <_>
      <internalNodes>
        0 -1 42286 2.3133722133934498e-03</internalNodes>
      <leafValues>
        -7.7700629830360413e-02 2.8494083881378174e-01</leafValues></_>
    <_>
      <internalNodes>
        0 -1 76328 -7.3130605742335320e-03</internalNodes>
      <leafValues>
        5.9934407472610474e-01 -3.6838077008724213e-02</leafValues></_>
    <_>
      <internalNodes>
        0 -1 76381 -1.4176481636241078e-04</internalNodes>
      <leafValues>
        -1.6700378060340881e-01 1.3334743678569794e-01</leafValues></_>
    <_>
      <internalNodes>
        0 -1 56192 9.1665396466851234e-03</internalNodes>
      <leafValues>
        4.6743493527173996e-02 -4.7560262680053711e-01</leafValues></_>
    <_>
      <internalNodes>
        0 -1 111818 1.6554759349673986e-04</internalNodes>
      <leafValues>
        -2.1752816438674927e-01 9.4083942472934723e-02</leafValues></_>
    <_>
      <internalNodes>
        0 -1 21946 1.0787580395117402e-03</internalNodes>
      <leafValues>
        -1.4342449605464935e-01 1.4738230407238007e-01</leafValues></_>
    <_>
      <internalNodes>
        0 -1 31295 1.6058534383773804e-03</internalNodes>
      <leafValues>
        -1.2028816342353821e-01 1.9431248307228088e-01</leafValues></_>
    <_>
      <internalNodes>
        0 -1 87539 4.1456340113654733e-05</internalNodes>
      <leafValues>
        -1.4077940583229065e-01 1.5675458312034607e-01</leafValues></_>
    <_>
      <internalNodes>
        0 -1 11880 2.1737755741924047e-03</internalNodes>
      <leafValues>
        3.4339252859354019e-02 -7.1325308084487915e-01</leafValues></_>
    <_>
      <internalNodes>
        0 -1 20938 -5.4471730254590511e-04</internalNodes>
      <leafValues>
        -2.6625749468803406e-01 7.4797727167606354e-02</leafValues></_>
    <_>
      <internalNodes>
        0 -1 104712 -2.4856057018041611e-02</internalNodes>
      <leafValues>
        -8.1837964057922363e-01 2.0512394607067108e-02</leafValues></_>
    <_>
      <internalNodes>
        0 -1 119074 -1.1702246963977814e-02</internalNodes>
      <leafValues>
        4.0179026126861572e-01 -5.3540848195552826e-02</leafValues></_>
    <_>
      <internalNodes>
        0 -1 132565 -2.0820270292460918e-03</internalNodes>
      <leafValues>
        -3.6839196085929871e-01 6.1964586377143860e-02</leafValues></_>
    <_>
      <internalNodes>
        0 -1 140384 5.4750218987464905e-03</internalNodes>
      <leafValues>
        3.4169547259807587e-02 -5.0827395915985107e-01</leafValues></_>
    <_>
      <internalNodes>
        0 -1 57852 8.5637502372264862e-02</internalNodes>
      <leafValues>
        3.0115310102701187e-02 -5.7880336046218872e-01</leafValues></_>
    <_>
      <internalNodes>
        0 -1 77996 3.7509191781282425e-02</internalNodes>
      <leafValues>
        -1.2909027934074402e-01 1.7768488824367523e-01</leafValues></_>
    <_>
      <internalNodes>
        0 -1 127797 2.9824543162249029e-04</internalNodes>
      <leafValues>
        -1.1606150120496750e-01 1.7213915288448334e-01</leafValues></_>
    <_>
      <internalNodes>
        0 -1 112309 3.2400988042354584e-02</internalNodes>
      <leafValues>
        -6.3248038291931152e-02 3.6357021331787109e-01</leafValues></_>
    <_>
      <internalNodes>
        0 -1 104651 1.5615291893482208e-02</internalNodes>
      <leafValues>
        -1.2120433151721954e-01 1.6454218327999115e-01</leafValues></_>
    <_>
      <internalNodes>
        0 -1 98741 6.9366651587188244e-03</internalNodes>
      <leafValues>
        3.1592525541782379e-02 -5.9554386138916016e-01</leafValues></_>
    <_>
      <internalNodes>
        0 -1 138304 9.9082104861736298e-04</internalNodes>
      <leafValues>
        -9.1146871447563171e-02 2.2228263318538666e-01</leafValues></_>
    <_>
      <internalNodes>
        0 -1 159366 3.7164185196161270e-03</internalNodes>
      <leafValues>
        3.5375446081161499e-02 -6.2764483690261841e-01</leafValues></_>
    <_>
      <internalNodes>
        0 -1 29361 -1.0647810064256191e-02</internalNodes>
      <leafValues>
        4.4645968079566956e-01 -4.7645382583141327e-02</leafValues></_>
    <_>
      <internalNodes>
        0 -1 133536 2.9629833996295929e-02</internalNodes>
      <leafValues>
        2.3139523342251778e-02 -8.7179726362228394e-01</leafValues></_>
    <_>
      <internalNodes>
        0 -1 75944 4.6467285603284836e-02</internalNodes>
      <leafValues>
        4.3090306222438812e-02 -3.8171136379241943e-01</leafValues></_>
    <_>
      <internalNodes>
        0 -1 13195 -7.0339039666578174e-05</internalNodes>
      <leafValues>
        1.5429033339023590e-01 -1.2381562590599060e-01</leafValues></_>
    <_>
      <internalNodes>
        0 -1 68140 5.8892499655485153e-03</internalNodes>
      <leafValues>
        3.2641470432281494e-02 -5.4035359621047974e-01</leafValues></_>
    <_>
      <internalNodes>
        0 -1 151166 -3.6163982003927231e-03</internalNodes>
      <leafValues>
        4.2083677649497986e-01 -4.6325635164976120e-02</leafValues></_>
    <_>
      <internalNodes>
        0 -1 87705 2.2187391296029091e-03</internalNodes>
      <leafValues>
        -1.0862657427787781e-01 1.6518190503120422e-01</leafValues></_>
    <_>
      <internalNodes>
        0 -1 19654 1.1724827345460653e-03</internalNodes>
      <leafValues>
        -1.2795551121234894e-01 1.5450468659400940e-01</leafValues></_>
    <_>
      <internalNodes>
        0 -1 111909 2.6777733117341995e-02</internalNodes>
      <leafValues>
        -2.7500471100211143e-02 7.7129268646240234e-01</leafValues></_>
    <_>
      <internalNodes>
        0 -1 33813 2.4960281734820455e-05</internalNodes>
      <leafValues>
        -1.0544601827859879e-01 1.8213611841201782e-01</leafValues></_>
    <_>
      <internalNodes>
        0 -1 120919 3.2793337595649064e-05</internalNodes>
      <leafValues>
        -1.3342292606830597e-01 1.5284442901611328e-01</leafValues></_>
    <_>
      <internalNodes>
        0 -1 60122 4.3627391278278083e-05</internalNodes>
      <leafValues>
        -1.2508605420589447e-01 1.5654842555522919e-01</leafValues></_>
    <_>
      <internalNodes>
        0 -1 154906 -6.7367944866418839e-03</internalNodes>
      <leafValues>
        -5.0430172681808472e-01 3.8452800363302231e-02</leafValues></_>
    <_>
      <internalNodes>
        0 -1 127914 -2.3562167189083993e-04</internalNodes>
      <leafValues>
        1.4267706871032715e-01 -1.3789238035678864e-01</leafValues></_>
    <_>
      <internalNodes>
        0 -1 51016 1.8742863833904266e-01</internalNodes>
      <leafValues>
        3.5021740943193436e-02 -5.7481414079666138e-01</leafValues></_>
    <_>
      <internalNodes>
        0 -1 43135 -7.1362115442752838e-02</internalNodes>
      <leafValues>
        4.9752929806709290e-01 -4.3581712990999222e-02</leafValues></_>
    <_>
      <internalNodes>
        0 -1 46295 -1.4827495440840721e-02</internalNodes>
      <leafValues>
        4.5772868394851685e-01 -3.9580505341291428e-02</leafValues></_>
    <_>
      <internalNodes>
        0 -1 39824 -4.1848821565508842e-03</internalNodes>
      <leafValues>
        -4.2605161666870117e-01 4.9750890582799911e-02</leafValues></_>
    <_>
      <internalNodes>
        0 -1 161820 -3.8789305835962296e-03</internalNodes>
      <leafValues>
        -6.2831592559814453e-01 2.8297360986471176e-02</leafValues></_>
    <_>
      <internalNodes>
        0 -1 68582 -5.5502066970802844e-05</internalNodes>
      <leafValues>
        -1.5115532279014587e-01 1.3695485889911652e-01</leafValues></_>
    <_>
      <internalNodes>
        0 -1 65609 -8.8016819208860397e-03</internalNodes>
      <leafValues>
        7.9888570308685303e-01 -2.5824217125773430e-02</leafValues></_>
    <_>
      <internalNodes>
        0 -1 35947 2.1926173940300941e-03</internalNodes>
      <leafValues>
        -1.1580321192741394e-01 1.7304375767707825e-01</leafValues></_>
    <_>
      <internalNodes>
        0 -1 118363 -3.0204111710190773e-02</internalNodes>
      <leafValues>
        8.8284140825271606e-01 -2.3546338081359863e-02</leafValues></_>
    <_>
      <internalNodes>
        0 -1 156414 -1.2851081555709243e-04</internalNodes>
      <leafValues>
        -1.9268704950809479e-01 1.0091112554073334e-01</leafValues></_>
    <_>
      <internalNodes>
        0 -1 67596 -1.1824101209640503e-02</internalNodes>
      <leafValues>
        -2.0659407973289490e-01 9.8490484058856964e-02</leafValues></_>
    <_>
      <internalNodes>
        0 -1 59733 2.6953606866300106e-03</internalNodes>
      <leafValues>
        2.9984455555677414e-02 -5.4903179407119751e-01</leafValues></_>
    <_>
      <internalNodes>
        0 -1 66882 2.2428310476243496e-03</internalNodes>
      <leafValues>
        -9.6150822937488556e-02 2.0447111129760742e-01</leafValues></_>
    <_>
      <internalNodes>
        0 -1 141743 -1.6033615916967392e-02</internalNodes>
      <leafValues>
        7.0404165983200073e-01 -2.5495417416095734e-02</leafValues></_>
    <_>
      <internalNodes>
        0 -1 116549 -1.4202566817402840e-03</internalNodes>
      <leafValues>
        -2.1276082098484039e-01 9.3244060873985291e-02</leafValues></_>
    <_>
      <internalNodes>
        0 -1 118647 9.9910944700241089e-03</internalNodes>
      <leafValues>
        3.4450545907020569e-02 -6.3402670621871948e-01</leafValues></_>
    <_>
      <internalNodes>
        0 -1 59021 -1.6868093982338905e-02</internalNodes>
      <leafValues>
        -6.5907591581344604e-01 2.5774314999580383e-02</leafValues></_>
    <_>
      <internalNodes>
        0 -1 97214 2.8638310730457306e-02</internalNodes>
      <leafValues>
        -4.6051450073719025e-02 4.8674070835113525e-01</leafValues></_>
    <_>
      <internalNodes>
        0 -1 73067 -2.0556719391606748e-04</internalNodes>
      <leafValues>
        -1.9741584360599518e-01 9.8800756037235260e-02</leafValues></_>
    <_>
      <internalNodes>
        0 -1 136537 -3.5308722872287035e-03</internalNodes>
      <leafValues>
        4.0050870180130005e-01 -5.4272945970296860e-02</leafValues></_>
    <_>
      <internalNodes>
        0 -1 139685 -9.2425365000963211e-03</internalNodes>
      <leafValues>
        -5.0256162881851196e-01 4.9042448401451111e-02</leafValues></_>
    <_>
      <internalNodes>
        0 -1 46298 3.6365412175655365e-02</internalNodes>
      <leafValues>
        -9.2634551227092743e-02 2.1611465513706207e-01</leafValues></_>
    <_>
      <internalNodes>
        0 -1 67807 -3.2777502201497555e-03</internalNodes>
      <leafValues>
        3.1162497401237488e-01 -7.0337012410163879e-02</leafValues></_>
    <_>
      <internalNodes>
        0 -1 76690 -7.8411966562271118e-02</internalNodes>
      <leafValues>
        -3.0148959159851074e-01 7.6950736343860626e-02</leafValues></_></weakClassifiers></stage2>
</opencv_storage>
