<?xml version="1.0"?>
<opencv_storage>
<stage1>
  <maxWeakCount>12</maxWeakCount>
  <stageThreshold>-8.2305359840393066e-01</stageThreshold>
  <weakClassifiers>
    <_>
      <internalNodes>
        0 -1 115620 -3.4797675907611847e-02</internalNodes>
      <leafValues>
        2.7787610888481140e-01 -4.7515401244163513e-01</leafValues></_>
    <_>
      <internalNodes>
        0 -1 304 2.2255364805459976e-02</internalNodes>
      <leafValues>
        1.5842217206954956e-01 -4.7794544696807861e-01</leafValues></_>
    <_>
      <internalNodes>
        0 -1 83088 1.0481248609721661e-03</internalNodes>
      <leafValues>
        2.0684434473514557e-01 -3.1268638372421265e-01</leafValues></_>
    <_>
      <internalNodes>
        0 -1 125754 -2.5594865437597036e-03</internalNodes>
      <leafValues>
        5.9698158502578735e-01 -5.8487337082624435e-02</leafValues></_>
    <_>
      <internalNodes>
        0 -1 118687 1.0906368494033813e-02</internalNodes>
      <leafValues>
        -1.1809977889060974e-01 5.8559334278106689e-01</leafValues></_>
    <_>
      <internalNodes>
        0 -1 114168 -2.8703698888421059e-02</internalNodes>
      <leafValues>
        -3.8533326983451843e-01 1.2996080517768860e-01</leafValues></_>
    <_>
      <internalNodes>
        0 -1 139336 1.4583398588001728e-03</internalNodes>
      <leafValues>
        2.1463161706924438e-01 -2.7449324727058411e-01</leafValues></_>
    <_>
      <internalNodes>
        0 -1 24706 2.0437981933355331e-02</internalNodes>
      <leafValues>
        -2.2501330077648163e-01 2.2985525429248810e-01</leafValues></_>
    <_>
      <internalNodes>
        0 -1 116554 6.7833508364856243e-03</internalNodes>
      <leafValues>
        -6.0369245707988739e-02 5.2200716733932495e-01</leafValues></_>
    <_>
      <internalNodes>
        0 -1 148537 -1.6619246453046799e-03</internalNodes>
      <leafValues>
        -4.7836461663246155e-01 8.9345835149288177e-02</leafValues></_>
    <_>
      <internalNodes>
        0 -1 155369 1.5250053256750107e-03</internalNodes>
      <leafValues>
        6.7679472267627716e-02 -5.1969671249389648e-01</leafValues></_>
    <_>
      <internalNodes>
        0 -1 117445 4.7630500048398972e-03</internalNodes>
      <leafValues>
        -1.1644653975963593e-01 4.4079855084419250e-01</leafValues></_></weakClassifiers></stage1>
</opencv_storage>
